3498 64
5568 0.07047813 -0.42199057 0.168799 -0.012746036 0.046881024 -0.5364318 -0.08048486 0.2838901 0.007802438 -0.028751537 0.4468866 0.21373783 0.07623682 -0.10171463 -0.33727926 -0.17629719 -0.4406918 0.38254777 0.33777857 -0.14878805 0.12418192 -0.009328656 0.0643361 -0.15448697 0.19636098 0.23913425 0.05915584 0.07511347 -0.40173805 -0.26942822 0.05913913 -0.23541293 -0.2893158 -0.25667042 0.21246861 -0.34103003 -0.078101456 -0.21398564 0.24288161 0.024325518 0.089965865 0.22363947 -0.29025432 -0.31141648 -0.15647468 0.36995894 0.23391198 -0.057808347 0.25934878 -0.06589878 0.30932388 -0.027117148 -0.36369118 -0.27068618 0.33866182 -0.28384358 -0.2840057 -0.6329709 -0.22390732 -0.20483895 0.4251704 -0.063444875 -0.15923618 -0.04033162
5567 0.045213405 -0.441349 0.1574602 0.00077477255 0.032194786 -0.56019074 -0.10688153 0.289978 -0.00602395 -0.04632759 0.46911997 0.20798777 0.08388942 -0.06643708 -0.365565 -0.19196641 -0.45115027 0.4096775 0.3329269 -0.12828326 0.12068179 -0.02608368 0.0776761 -0.10935939 0.12957148 0.19719034 0.050801273 0.1137314 -0.37171137 -0.3110919 0.07830229 -0.21390781 -0.27535206 -0.28312156 0.1984129 -0.344111 -0.05725166 -0.18991221 0.23497885 0.102456376 0.10248129 0.244588 -0.24871252 -0.32595533 -0.2086741 0.3640589 0.23259507 -0.07218699 0.29522514 -0.03305173 0.28184408 -0.022758361 -0.33245575 -0.28392226 0.3198631 -0.2986575 -0.28670084 -0.6441953 -0.17914195 -0.20304531 0.46176192 -0.07557589 -0.15618268 -0.07785555
5566 0.059568536 -0.4641477 0.16618231 0.01672718 0.0798905 -0.56090945 -0.08441512 0.31309408 -0.00018872604 -0.02065908 0.46798468 0.18562311 0.07339886 -0.065552145 -0.39296627 -0.12963209 -0.42262104 0.42564633 0.36487603 -0.14200231 0.14208849 -0.00143104 0.052194018 -0.09965699 0.149519 0.19695978 0.042349465 0.12179381 -0.3614942 -0.30314493 0.086156346 -0.16127688 -0.24976383 -0.22341292 0.21703243 -0.32315424 -0.05426389 -0.20448272 0.23721586 0.06473457 0.0337915 0.21781036 -0.2573306 -0.36617053 -0.15389481 0.3692554 0.2365592 -0.08706622 0.27609077 -0.07847708 0.2848464 -0.033997238 -0.37883106 -0.26710162 0.31300923 -0.28185833 -0.2711983 -0.60114855 -0.1909336 -0.24205436 0.44680053 -0.08654035 -0.1404152 -0.03303099
2782 -0.101758175 -0.6902766 0.2562802 0.20566732 -0.10001073 -0.4320037 -0.12898245 0.14302437 -0.014291514 0.1946574 0.2841158 0.17878415 -0.115123756 -0.025558192 -0.017211173 -0.27704692 -0.29048148 0.2254705 0.27135167 -0.020483812 0.29987335 -0.119403206 0.2530473 -0.11119022 0.35882646 0.024534663 -0.14181696 -0.009488985 -0.33256787 -0.17389706 0.35377508 -0.14870076 -0.23093717 -0.42623806 0.3368745 -0.19642623 -0.027900439 0.019767186 0.24970374 -0.13145368 -0.059348598 0.25910425 -0.245322 -0.07494244 0.008398369 0.09224337 0.24328695 -0.456229 0.024147218 -0.09252861 0.16528231 0.2022982 -0.5808068 -0.20031214 0.49553323 -0.021741413 -0.07495234 -0.6200993 0.2579149 -0.044417102 0.7616132 -0.27979055 -0.2753723 -0.18966582
51764 0.08681722 -0.60132927 0.29610643 0.18097928 -0.07682298 -0.4007783 -0.19643846 0.09955606 -0.0060668425 0.20875904 0.374721 0.16769506 -0.05715918 -0.0333861 0.13838013 -0.40581325 -0.32317388 0.3774874 0.23269504 0.11786299 0.27520013 -0.13056773 0.22691685 -0.14629951 0.27391875 0.06468402 -0.123778746 -0.00928046 -0.3185708 -0.16394916 0.42411456 -0.043289606 -0.26939103 -0.3454836 0.33514893 -0.2457507 -0.052466042 0.06664942 0.18878506 0.020063989 -0.12079138 0.25302672 -0.26312387 -0.050833814 -0.008456805 0.082184255 0.26529774 -0.4164246 0.05517733 -0.17146344 0.322014 0.1159875 -0.6630738 -0.13811418 0.2973417 -0.110401414 -0.1837535 -0.71697915 0.18156141 -0.074841954 0.7293882 -0.19753037 -0.2258881 -0.16819227
2788 0.035551485 -0.6189312 0.26424268 0.2021046 -0.090411685 -0.48871827 -0.20519467 0.1729515 -0.047527682 0.22137411 0.369814 0.1575664 -0.04195974 -0.050778363 0.07395185 -0.34130618 -0.26957688 0.33314335 0.27180395 0.13971202 0.33452123 -0.11971512 0.20989603 -0.13277169 0.28488186 0.04406676 -0.11222963 -0.0047558006 -0.30637944 -0.16966505 0.3761416 -0.10696898 -0.22871457 -0.32776645 0.42377865 -0.25404587 -0.079759315 0.10957344 0.19774652 -0.0917661 -0.022540994 0.18772255 -0.2715787 -0.09303952 0.02724872 0.11395567 0.29075247 -0.43503216 0.0575488 -0.14479864 0.32261598 0.12450489 -0.6262243 -0.20531945 0.32759604 -0.18699242 -0.17765574 -0.6438622 0.20657098 -0.041306544 0.70271 -0.2422862 -0.200202 -0.23680022
2774 0.05644771 -0.6689715 0.4500981 0.07153935 0.26055762 -0.70452064 -0.1728663 -0.02069102 0.13283171 0.30332956 0.49115986 0.13711593 0.14534818 -0.34049523 -0.16253021 -0.4004235 -0.23607299 0.42234936 0.44736686 0.1627382 0.19829822 -0.12354505 0.29827267 -0.057033297 0.3327749 0.06250775 -0.042490494 -0.31338647 -0.46511647 -0.25457358 0.44604883 -0.14729099 -0.026158962 -0.43049607 0.36472443 -0.58536017 -0.09471393 -0.085225776 0.30372953 -0.174789 0.09877654 0.21751145 -0.18190266 -0.15757166 0.02062539 0.22053221 0.06644351 -0.37610236 0.036343206 -0.10962956 0.43855062 0.1636011 -0.34664053 -0.21380906 0.65153015 -0.014229813 -0.22025572 -0.7869677 0.19339953 -0.04764951 0.5330613 -0.39931223 -0.0070817056 -0.23464914
156 0.1668509 -0.7143256 0.10567628 0.052609067 0.25847733 -0.68169695 -0.26473 0.08820392 0.2682879 0.05342123 0.3769663 0.23413725 0.021546269 0.034903377 -0.059128758 -0.48869714 -0.25143072 0.47531006 0.26554555 0.032034546 0.37290195 -0.0301283 0.20087044 -0.052341677 0.2943383 0.110491104 -0.06229501 0.07945482 -0.28587162 -0.21733552 0.2135864 -0.16101918 -0.32985696 -0.28916824 0.48308587 -0.46217886 -0.13441932 -0.22813039 0.2761671 0.16439639 -0.019925812 0.34839258 -0.28530344 -0.064100385 0.17055473 0.30805388 0.0632465 -0.10393638 0.1162611 -0.15912133 0.40243796 0.13754864 -0.48240587 -0.47025108 0.56863433 -0.17818277 -0.23360385 -0.6580175 0.31212446 0.0067852833 0.5885544 -0.529622 -0.103319176 -0.30009654
157 0.18141511 -0.7096696 0.14430949 0.065449096 0.27090836 -0.66720384 -0.25604177 0.039749194 0.24581873 0.089688234 0.35656747 0.24842863 0.006904032 0.04771797 -0.017599035 -0.4894605 -0.20671909 0.47964385 0.2598228 -0.010731544 0.4131249 0.021443292 0.16928469 -0.0410735 0.32240993 0.1294064 -0.017754758 0.0763951 -0.29458237 -0.18115732 0.1767805 -0.16897306 -0.33385113 -0.24901633 0.4929657 -0.4824195 -0.13656273 -0.18847714 0.25997546 0.14470616 -0.039775144 0.29746667 -0.27782357 -0.1157083 0.19178712 0.25742382 0.05027956 -0.06340814 0.094706446 -0.13650346 0.43175766 0.14199181 -0.5133946 -0.43702665 0.61080563 -0.19369042 -0.237818 -0.66661966 0.29795226 -0.047459047 0.6101245 -0.46925443 -0.076429546 -0.27569303
408 0.11524011 -0.4773397 0.24772103 0.12894145 0.18401633 -0.7434027 -0.21422532 0.02080671 0.17716376 0.21581835 0.53437465 0.19761913 -0.102914095 -0.075168386 -0.09302 -0.44860935 -0.51437914 0.45759404 0.3115981 -0.08047337 0.27219027 -0.052229565 0.20868431 -4.63901e-05 0.4678926 -0.034458544 0.046105105 0.00406872 -0.3209355 -0.2522678 0.3186602 -0.18399055 -0.19719563 -0.2420501 0.5580787 -0.3808958 -0.061003108 -0.16088021 0.264703 0.08552188 0.05926861 0.33088407 -0.31608817 -0.036412127 0.07348557 0.17054795 0.114067554 -0.19080208 0.15787192 -0.084584974 0.35916206 0.11446105 -0.546982 -0.31394497 0.5243402 -0.22957903 -0.26322174 -0.70200235 0.35691813 0.0026166935 0.64883715 -0.37168458 -0.20521353 -0.20547172
409 0.13349637 -0.45348573 0.2487515 0.10845012 0.16701634 -0.76204365 -0.28565648 0.021411518 0.18392354 0.2514356 0.5720187 0.19486049 -0.10064136 -0.040469404 -0.09370484 -0.45851922 -0.51452345 0.44373828 0.36243027 -0.044608787 0.23367724 -0.07038385 0.18762979 0.020934522 0.41530094 -0.044000298 -0.022505555 0.0207507 -0.37198722 -0.18471096 0.40169853 -0.17122197 -0.1942799 -0.3017575 0.5320533 -0.317257 -0.09815569 -0.056103233 0.2756271 0.14075892 0.063577674 0.32903257 -0.3263002 -0.046036016 0.068548754 0.14817591 0.120144986 -0.20458391 0.19769073 -0.03991987 0.32080638 0.13338202 -0.51897454 -0.27263033 0.5022517 -0.240515 -0.28571227 -0.72940475 0.3467303 -0.055394758 0.6530129 -0.32608163 -0.19306138 -0.23525703
5594 -0.2723717 0.11366016 0.24611376 -0.20015682 -0.23714946 -0.12266955 0.049032092 -0.120431475 -0.07505956 0.15995233 0.055782888 -0.17874105 -0.40767202 -0.41753465 -0.51274264 0.3244477 -0.35553393 0.47938 0.3026433 0.25274992 -0.3715391 -0.12368897 0.16387306 -0.047287013 -0.32966563 -0.15794949 0.075159915 0.233185 0.18038471 -0.024135707 0.47439238 -0.41691437 -0.4640475 0.08688331 0.28309143 -0.26506928 -0.40275672 0.14519401 -0.2214846 -0.2306195 0.26383418 0.22332424 -0.12531514 -0.6626584 0.25474402 0.033723272 0.2519784 -0.3747343 -0.043508485 -0.25999352 -0.29026356 0.019843291 -0.12022748 0.012454948 -0.17651844 -0.07603471 -0.114844695 -0.22725177 -0.14886843 0.14802757 -0.07581664 -0.3549789 -0.1707123 0.380951
5595 -0.30555862 0.10157059 0.21466026 -0.20755623 -0.21418 -0.14180924 0.049068786 -0.13228236 -0.10432519 0.1307202 0.050115958 -0.21269174 -0.4521356 -0.39375457 -0.49448287 0.3277342 -0.39582494 0.48809516 0.29291466 0.2613874 -0.32624027 -0.1675507 0.1623903 -0.027939156 -0.37111533 -0.15414903 0.120395645 0.24454303 0.17810228 -0.0077269203 0.44689468 -0.41462094 -0.46259272 0.066142686 0.23601764 -0.26689532 -0.37234905 0.1206316 -0.25021347 -0.22032161 0.25353196 0.21265253 -0.09929538 -0.66812897 0.25058728 0.03370569 0.2315247 -0.39562044 -0.04068238 -0.25320992 -0.25821888 0.043932147 -0.12582423 4.746599e-05 -0.19820742 -0.0764975 -0.12400356 -0.19570956 -0.15015808 0.1041248 -0.117435195 -0.3311168 -0.1970171 0.34350586
2776 0.017810708 0.0019344528 0.21409914 0.44924605 -0.5562367 -0.033288267 -0.14722438 0.059241906 -0.0114796385 0.08160476 -0.45817414 -0.24839006 -0.18445267 -1.0416539 -0.26958066 -0.04075975 -0.13646944 0.5583346 -0.24362715 0.3977427 0.25601977 -0.54196835 0.2829909 0.13395539 0.2128987 -0.22855099 -0.3501119 0.2131707 -0.20209889 -0.42182416 0.029982287 -0.3234675 -0.09341852 -0.6463249 -0.28489825 -0.3874081 -0.45786247 -0.01878649 -0.23508489 -0.1851086 -0.21093126 0.18010183 -0.34147835 -0.11995725 0.16619466 -0.4911802 -0.08091767 -0.04079322 -0.13070744 -0.5844028 -0.009930563 0.08767187 0.12401744 -0.08412719 0.20548852 -0.5237585 0.2433109 -0.61979496 0.64858234 0.08595489 -0.32881808 -0.41478845 0.2633112 -0.20341617
2771 -0.018688487 -0.36061084 0.35307953 -0.09760068 -0.058593776 -0.11095611 -0.40925786 0.11115819 0.10170332 0.26940787 0.10251573 -0.10076917 -0.30846688 -0.27674472 -0.23675866 0.373198 0.08107764 0.3846331 0.30952328 0.5763918 0.19722189 -0.11501262 0.4595605 0.0024146347 0.032646045 -0.2376096 -0.07420938 0.35735068 0.19047707 0.2383335 -0.19455908 0.210895 0.0013940058 -0.71420246 0.08423661 0.23106697 -0.544037 -0.37761763 0.33551255 0.23581234 -0.08372453 0.14204407 -0.33153808 -0.05335792 0.4129122 -0.122861475 -0.049150795 0.042029347 -0.27047753 -0.4766116 0.25731346 0.12905598 -0.21916725 -0.48101863 0.2211528 0.048885252 0.39611185 -0.46989033 0.2889557 0.16859743 -0.17446761 -0.20200862 0.012756151 -0.029527467
2773 -0.029728716 -0.3331184 0.36887085 -0.10397323 -0.041619565 -0.053897016 -0.44108894 0.104764156 0.074586295 0.2889922 0.09861631 -0.050286945 -0.2777961 -0.2760441 -0.19839849 0.36725256 0.12927924 0.4184624 0.2530891 0.57717603 0.18267156 -0.115649186 0.50045526 -0.003862356 0.04495641 -0.22385342 -0.036025286 0.3926543 0.22220011 0.16442475 -0.13070425 0.1781044 -0.013115091 -0.73433626 0.0871118 0.2513609 -0.50045455 -0.37555817 0.32029212 0.21474819 -0.113968275 0.09116188 -0.29239446 -0.060898066 0.38772485 -0.17494963 -0.019422479 0.06902755 -0.29365218 -0.4948417 0.23807791 0.12044488 -0.23108123 -0.48611745 0.17529812 0.0078037917 0.42967674 -0.49526224 0.29340357 0.13831466 -0.10899403 -0.22017364 -0.020962648 -0.040756736
2770 -0.067485474 -0.29704338 0.38136476 -0.21374223 -0.03765877 -0.09119819 -0.4277906 0.08186054 0.08251844 0.30420417 0.13081232 -0.08904993 -0.2779894 -0.2667617 -0.20743853 0.40390792 0.1387183 0.46791765 0.28587133 0.56324816 0.21166085 -0.14042602 0.51481843 0.0043519484 0.0071048713 -0.22951783 -0.0051543037 0.30679834 0.22073042 0.24131031 -0.17547233 0.21982656 0.010457401 -0.7207358 0.12801096 0.26975656 -0.4959436 -0.4193147 0.3276698 0.22681488 -0.14967461 0.13756247 -0.36828887 -0.06069699 0.43719253 -0.14563869 -0.013183716 0.01985202 -0.26491737 -0.46881536 0.2760124 0.111088485 -0.18185821 -0.47903705 0.20182166 0.042153757 0.42757744 -0.4679481 0.2700527 0.13446411 -0.16951881 -0.201813 -0.048777312 -0.056309603
1956 -0.3887476 -0.050353006 0.10227648 -0.23629817 0.013266963 0.17532258 -0.30899757 0.29138622 0.11007573 0.38866207 0.36460063 -0.32156208 0.044924803 -0.40374133 0.5938663 0.6049317 -0.48599306 -0.3797564 0.43654782 0.36739853 0.079600304 -0.11391405 0.045182202 -0.13103074 -0.12974724 -0.08566641 -0.39847332 0.06856621 0.10770896 -0.1498098 0.021493483 -0.49026495 -0.46186 -0.25157335 0.025671892 0.11581588 -0.04633095 -0.12193025 -0.8643357 0.29212353 -0.22682948 0.10313693 -0.24765389 -0.030656448 0.24891211 0.19486634 0.3375607 0.19640286 0.276953 0.3165035 0.30507058 0.5698776 -0.03333443 0.06450493 0.27407828 -0.010668029 -0.06810145 -0.15654717 0.08940207 0.03151284 -0.3039894 0.29792786 -0.25540522 0.29693767
5290 -0.21318042 -0.36388978 -0.14906897 -0.4281138 -0.3213093 0.20586787 -0.2523053 -0.09388885 -0.16360596 0.30570117 0.22308199 0.032053515 -0.004243798 -0.12137812 -0.095876046 0.48284683 -0.30000374 0.10872271 0.1379871 0.45363176 0.35494283 -0.24941836 -0.4040267 0.09179042 -0.14155509 0.10857374 -0.1533295 -0.056269184 -0.16125834 -0.04690516 0.015660943 0.104902424 -0.5080474 -0.23800296 0.18892224 -0.13791041 0.12258317 -0.0050982055 -0.34221017 -0.034149375 0.42693865 0.055782504 0.20553379 0.23693666 0.30397844 -0.23839907 0.30860463 -0.027025808 -0.01983081 -0.46129486 0.10731474 0.35036922 -0.33825555 -0.09093359 0.46124342 -0.09273137 0.39883572 -0.20336184 -0.17930642 0.009201398 -0.055955358 0.01706427 -0.2906355 0.049838055
5296 -0.21794014 -0.411406 -0.15843043 -0.43220344 -0.24143186 0.22679052 -0.1909076 -0.08149003 -0.13339923 0.2790457 0.22038057 0.019774988 0.047077 -0.10421684 -0.086693935 0.48958454 -0.2829604 0.22269568 0.09102308 0.49779275 0.3880739 -0.236714 -0.4088104 0.07817491 -0.12016225 0.14738566 -0.23476061 -0.08171749 -0.18150647 -0.031632558 -0.04159813 0.06716822 -0.48790815 -0.25413224 0.16711162 -0.15091155 0.11820184 -0.021591851 -0.36684912 -0.047398187 0.43023628 0.05688161 0.17361754 0.25447562 0.23716785 -0.23534425 0.28626385 -0.00973288 0.003570461 -0.45124954 0.11601427 0.29006597 -0.3069892 -0.09535559 0.49402797 -0.050308548 0.36148143 -0.23080471 -0.19605441 -0.020679044 -0.11847014 0.037501782 -0.24536607 0.057615202
5291 -0.2526477 -0.37262905 -0.18637502 -0.39042404 -0.28489527 0.24953909 -0.1866348 -0.09848507 -0.14973353 0.32014123 0.21410346 0.0580521 0.008249357 -0.18113655 -0.09191521 0.53896934 -0.26428208 0.14694183 0.11153429 0.4720134 0.3816988 -0.20191361 -0.39012536 0.048054617 -0.11438621 0.114891656 -0.19972017 -0.1273486 -0.14431074 -0.048187606 -0.009310866 0.07753591 -0.45928144 -0.26134634 0.21056382 -0.15459344 0.119897485 0.045644443 -0.3660335 -0.057180982 0.44428474 0.05557175 0.18792625 0.27662498 0.25687358 -0.20304069 0.3370806 -0.060378216 -0.023971833 -0.48167673 0.07995368 0.33352494 -0.32394472 -0.06513405 0.44297707 -0.110796906 0.35691983 -0.20546043 -0.19526842 -0.022066476 -0.05041232 0.07321389 -0.2734733 0.027036829
5295 -0.22627902 -0.36178997 -0.15194772 -0.39725286 -0.28806376 0.2410939 -0.23383397 -0.09226368 -0.17525487 0.2832642 0.1928136 0.005176237 0.06618226 -0.14654194 -0.11780468 0.51005834 -0.2679534 0.13556312 0.11414242 0.46327055 0.4099968 -0.24913594 -0.42575923 0.078680284 -0.15033521 0.10421873 -0.1973353 -0.08693484 -0.14300251 -0.019716961 -0.04533865 0.091581345 -0.46109086 -0.27824414 0.21626514 -0.16346532 0.19009824 0.007161379 -0.33233574 0.013135745 0.4189812 0.04932029 0.19600478 0.23593743 0.2665656 -0.260122 0.33843488 -0.04157552 -0.054698996 -0.4466396 0.10598201 0.32941303 -0.3273472 -0.07040024 0.46222863 -0.10039889 0.38298696 -0.2420056 -0.15583128 -0.024992343 -0.07062095 0.0037525455 -0.24571437 0.080494486
8503 -0.1719671 -0.3617007 -0.15229823 -0.37472975 -0.30501783 0.2202966 -0.255746 -0.088780925 -0.1459689 0.30074397 0.22880472 -0.030629994 0.00965246 -0.15869364 -0.062127482 0.4741759 -0.28336963 0.1472368 0.10266635 0.4404036 0.40023053 -0.26437953 -0.40590262 0.084133334 -0.11596744 0.13454647 -0.23100506 -0.14258488 -0.19566253 -0.040217638 -0.043657757 0.10702268 -0.46453965 -0.280116 0.19039585 -0.15773171 0.11996574 -0.0047787707 -0.34602204 -0.032460365 0.41232622 0.0043682223 0.19185139 0.25108016 0.26632687 -0.25443998 0.28774267 -0.04927969 -0.05145154 -0.4712385 0.12418001 0.3269704 -0.31862116 -0.10524623 0.47589704 -0.09964982 0.36981514 -0.22947393 -0.15503302 0.0040754504 -0.10107654 0.03722103 -0.308671 0.07620329
5293 -0.19371253 -0.37506175 -0.18227188 -0.41863483 -0.2510314 0.25416714 -0.23141782 -0.0646301 -0.17221728 0.26000553 0.20791298 0.01921605 0.007765383 -0.16085774 -0.085184455 0.47555286 -0.3197527 0.15465185 0.07903544 0.45352173 0.37779757 -0.22397213 -0.39561933 0.11104349 -0.12893493 0.10285082 -0.19491467 -0.11878614 -0.18467295 -0.01423515 -0.023273855 0.061085336 -0.4787534 -0.2652502 0.2508386 -0.13313101 0.124230124 -0.033627924 -0.34516397 -0.021556964 0.4562527 0.021832606 0.1899066 0.24578398 0.26603243 -0.26989713 0.36905366 -0.018345755 0.01188073 -0.46523234 0.13377157 0.32436177 -0.34236434 -0.102618456 0.47193465 -0.05957024 0.38871333 -0.20458135 -0.17046627 -0.033311382 -0.033114377 0.015085251 -0.27174827 0.074766636
10000 -0.454873 -0.2983948 0.6191011 -0.11491468 0.09236121 -0.06928436 0.031321034 0.51999325 0.1570082 -0.09719876 -0.08249616 -0.6646228 0.22956318 -0.13021924 -0.1653271 0.28078887 -0.24549212 0.35111648 0.075469315 -0.121563464 0.05856107 -0.16417551 -0.21510814 0.055658095 -0.21086317 -0.063894525 0.18806826 -0.04170647 -0.093782365 -0.39338773 0.35918406 0.44687217 -0.162893 -0.57448834 0.086833276 -0.030760685 -0.32030362 0.12669328 -0.20048241 0.08163429 0.23380911 0.39974803 -0.15654707 0.047392506 0.048193194 0.29535258 -0.0054165833 -0.37778008 -0.028549153 0.20412096 -0.13059573 -0.27059624 -0.06749775 -0.56682736 0.033462446 -0.51436776 0.27265385 -0.2184534 -0.49150598 0.029461332 -0.15278563 0.08511498 -0.2440054 0.37863854
208 -0.45853445 -0.33231923 0.66967154 -0.09248082 0.083080664 -0.057565812 0.050557055 0.5461173 0.10161488 -0.1068234 -0.064435475 -0.6311102 0.16830729 -0.1266228 -0.11079007 0.33089963 -0.18252459 0.3075165 0.012997071 -0.07746296 0.018558893 -0.14927836 -0.2047978 0.042394932 -0.11091223 -0.018903278 0.1832566 -0.045757607 -0.07043279 -0.37823325 0.36231378 0.4303213 -0.16096023 -0.58950293 0.041325387 -0.0510192 -0.3233785 0.12625194 -0.16261724 0.08088833 0.27923468 0.40940085 -0.17523365 0.016876718 0.05629661 0.26307514 -0.0057114246 -0.35219035 -0.034367934 0.18120503 -0.17895354 -0.2946403 -0.062962234 -0.5905915 0.032981537 -0.51492983 0.24197656 -0.25035158 -0.4395234 0.02446976 -0.13606599 0.042869925 -0.2819701 0.33664393
207 -0.49617472 -0.36041877 0.6643331 -0.13596301 0.11012768 -0.118266255 0.04968009 0.5479409 0.1645694 -0.11097756 -0.10287184 -0.6842927 0.16255578 -0.10376628 -0.15558326 0.27890578 -0.24701403 0.31916785 0.041163243 -0.12602237 0.022289222 -0.15856443 -0.20383735 0.05614123 -0.13503395 -0.031480204 0.1618969 -0.0698237 -0.091165155 -0.36341786 0.2863414 0.42492524 -0.15412426 -0.6127955 0.07387275 -0.06435629 -0.3308614 0.10663357 -0.19090433 0.04337393 0.21903272 0.38935518 -0.16675776 0.0669031 0.062470462 0.29025692 -0.010118809 -0.3598102 -0.017161619 0.19647522 -0.15485129 -0.27417922 -0.11100976 -0.5397478 0.04294401 -0.53822994 0.21635358 -0.20299791 -0.5117472 -0.0076781902 -0.07692397 0.054328423 -0.27187514 0.3928187
5156 -0.056493964 0.0005356209 0.07683601 -0.22946322 -0.06098678 0.22303623 -0.15201971 0.112552404 0.13758478 0.23145945 0.28644773 -0.44974756 -0.056293584 -0.20561306 0.808611 0.7825147 -0.3858355 -0.27254716 0.2110857 0.30654514 0.041256003 -0.22831203 -0.16842946 -0.3116156 -0.20395908 0.13238621 -0.39864796 0.123056345 -0.038051233 -0.2866685 0.08357612 -0.57491314 -0.4907927 -0.22816642 -0.06889719 0.050461218 -0.009148082 -0.1308727 -0.5207818 0.2803543 -0.23023392 0.027607797 -0.12564188 -0.06884591 0.23341088 0.27766642 0.37143493 0.25806564 0.08818884 0.17752817 0.026736833 0.69884026 -0.1438705 0.07237749 0.62267673 -0.17208116 0.0074083894 -0.26903278 0.11774164 -0.02603282 -0.38433903 0.3791953 -0.14778733 0.33393174
2309 0.13726388 -0.40403366 -0.015367064 -0.65717494 -0.18288922 0.12611438 0.5585187 -0.27029142 0.2812515 0.35263687 -0.3302796 -0.30679792 0.1222971 -0.0404555 0.40727907 0.17883196 -0.26109883 0.12253336 0.47153595 -0.24274546 -0.15156636 0.09926266 -0.44506586 -0.2938504 -0.047256295 -0.05376303 0.22253907 0.45816287 0.0016173796 -0.27172247 0.38351342 0.23477508 -0.04850467 -0.6597434 0.010870391 -0.007852471 -0.48727065 0.31928095 -0.0077050887 0.092957966 0.13850331 0.48229447 -0.45942464 -0.4226038 -0.32639885 -0.00038714882 -0.0137140155 -0.29413918 0.51219743 -0.71383107 0.037213106 0.05493214 -0.26440495 -0.4072337 0.016433796 -0.40311274 0.23541035 -0.18526521 -0.06952402 -0.1542545 0.15196632 -0.063455686 -0.12978943 -0.1804807
7157 -0.3448732 0.20481779 0.033012576 -0.21398774 0.4528339 0.77670956 0.35508114 0.41440713 -0.3045544 0.31527653 0.24494344 -0.5380727 -0.440366 0.40247175 -0.1903116 0.03586127 0.44801047 0.03628592 0.9052175 0.19366704 0.16722508 -0.13709812 -0.3409993 -0.13683416 0.341106 -0.31658527 0.054096386 0.2838024 0.2003681 -0.820022 0.3557889 -0.34954554 -0.017930327 -0.6318737 0.03893405 -0.54122144 -0.29589295 0.5126231 -0.4080241 0.40944904 0.08329096 -0.06888531 -0.016470702 -0.46163782 -0.3746119 0.3515076 -0.04954565 0.3014801 -0.040124997 -0.37922502 -0.41540015 0.18649466 -0.69577366 -0.4659173 -0.08653135 -0.5570276 0.21534227 -0.11142969 -0.027527709 0.13072115 -0.032946885 -0.3204688 -0.032555543 -0.34581414
5603 -0.31596416 -0.19102535 0.22899543 -0.5515346 -0.2546917 0.078088775 0.05369757 -0.3537209 -0.28002605 0.29412317 0.14613742 -0.07215133 -0.10592605 -0.07978411 -0.1059886 0.35304895 -0.30015635 0.34017718 0.1383049 0.18370646 0.35864577 0.14938241 0.020621412 0.16656044 0.3037274 -0.4937304 0.17286395 -0.047982063 0.23800798 0.23528768 0.32098094 0.06158478 -0.3706761 -0.5619245 0.055824235 -0.14491306 -0.13421269 0.17280848 0.20031032 0.13393088 -0.47659323 -0.03817822 -0.3689383 -0.4920822 -0.13252504 0.28596053 0.13267021 -0.28228477 -0.20790362 -0.13978355 -0.40369114 -0.0027622427 -0.47397554 0.18551035 0.09665051 -0.45806032 -0.15183587 -0.18997048 -0.30483848 0.28470525 0.021934455 -0.30924222 -0.030103201 0.04637594
6300 -0.30636212 -0.19843273 0.19036286 -0.5213422 -0.256172 0.043440327 0.07014358 -0.31671998 -0.27207106 0.32411855 0.077449 -0.06639031 -0.12088477 -0.11308476 -0.06758678 0.34160808 -0.31636542 0.32087135 0.1377531 0.18059619 0.33998284 0.16083285 0.010733112 0.15683123 0.31507602 -0.51832724 0.16329338 -0.062062483 0.1817202 0.24648774 0.28534228 0.04278347 -0.40205333 -0.57939047 0.06219103 -0.1415059 -0.10534136 0.157424 0.18098232 0.14067777 -0.49959093 -0.033027634 -0.43346706 -0.48497337 -0.14668092 0.27283898 0.13264412 -0.26624343 -0.1903064 -0.13850626 -0.4023729 -0.02013622 -0.5244405 0.2491323 0.10508568 -0.49693677 -0.12982653 -0.1254331 -0.31018162 0.3230838 0.054442722 -0.32072872 -0.024517374 0.06277554
1432 -0.26451248 -0.12655161 0.18982814 -0.51609933 -0.24286497 0.078212254 0.025077092 -0.279087 -0.25614163 0.35278043 0.17669751 -0.051027536 -0.12556194 -0.094906546 -0.1096535 0.33862415 -0.3281871 0.3378017 0.16310748 0.19500653 0.31944117 0.17963293 0.023451827 0.13248487 0.33038616 -0.49652717 0.17284973 -0.063498 0.2151429 0.24953572 0.29344487 0.06007914 -0.3929922 -0.5855983 0.08238506 -0.19915205 -0.08012106 0.15597202 0.21180409 0.16609007 -0.48000926 -0.031145407 -0.4254823 -0.48703644 -0.18563952 0.27778497 0.13679938 -0.26452243 -0.24471289 -0.11637051 -0.41612512 0.0015877363 -0.49747157 0.206101 0.117525905 -0.5175453 -0.0882328 -0.14435114 -0.3092571 0.3078046 0.036522686 -0.28988576 -0.016219879 0.051517986
5970 0.32612413 0.29705223 0.06320952 -0.7258136 0.65549135 0.25597873 -0.11056283 -0.3787786 0.095159486 -0.32864732 -0.053029194 -0.2826876 -0.040101606 -0.54181296 0.021248853 0.070126146 0.057476413 0.22357798 -0.06310905 0.70231986 0.533891 -0.15168308 -0.3076006 -0.02873459 0.2311305 0.04993724 -0.3761692 0.24926971 0.058278367 -0.07275684 0.3720817 0.43405047 -0.21243083 0.55412126 0.4001445 0.021237612 -0.3248438 0.12623066 -0.30042458 0.67403966 -0.091271654 0.14776571 -0.42495972 -0.0076472578 0.04243666 0.73354334 0.19442493 -0.18106802 0.37574157 0.119728595 -0.37649536 0.4062354 -0.2453005 -0.66990197 0.0839529 -0.33570465 -0.08337573 -0.19940753 -0.2293947 0.036466863 -0.1714129 -0.20792688 0.050679125 -0.04677707
5600 -0.29379648 -0.13515784 0.21214151 -0.5320142 -0.23159845 0.09070777 0.05096165 -0.30676502 -0.2429608 0.28233534 0.12743078 -0.06006969 -0.07324081 -0.13689637 -0.08689512 0.35324353 -0.34159762 0.32889935 0.18934186 0.19830096 0.325393 0.14950034 0.047168348 0.07684987 0.31266513 -0.46549436 0.18601702 -0.085695446 0.19704613 0.24728337 0.28387734 0.05970249 -0.35975426 -0.60165334 0.07012628 -0.1397326 -0.123103686 0.1231766 0.23943743 0.12985204 -0.44382134 -0.03189072 -0.45803928 -0.48925102 -0.13704816 0.28453636 0.11408186 -0.30149868 -0.21895787 -0.19832337 -0.41008127 -0.0554307 -0.50979817 0.21338238 0.08222117 -0.449493 -0.1573217 -0.11064438 -0.28614017 0.26618668 0.065585725 -0.30276787 -0.08024046 0.054292973
5599 -0.30501893 -0.2137369 -0.046656523 -0.6347202 0.051690742 0.29096168 -0.18503526 -0.078806184 0.046925064 0.022015324 0.02188851 -0.067325726 -0.07474924 -0.059659738 0.024036815 0.3262605 -0.3473497 0.19623856 0.4921653 0.19961217 0.10184276 0.40980536 0.02802887 -0.025059948 0.19413282 -0.3437218 0.19245382 0.18380225 -0.07144579 -0.19022621 0.36784276 0.076185994 -0.36118186 -0.5499384 -0.21535774 -0.040262293 -0.14856252 0.14694063 0.19062535 -0.17033803 -0.1463711 -0.41216135 -0.24262877 -0.34184644 -0.22422639 0.10284455 0.47608125 -0.4879763 0.045495164 -0.32216266 -0.3945728 -0.006179791 -0.8324163 0.16740683 -0.024361255 -0.22205499 0.12885234 -0.40815556 0.029288072 0.020460846 -0.17537212 0.09916288 -0.09040097 -0.13498253
5602 -0.24101067 -0.17483832 -0.024122018 -0.6419461 0.0458469 0.26589593 -0.21154115 -0.11280819 0.030247128 -0.004149634 0.02015078 -0.031527795 -0.08357096 -0.080893174 0.040948033 0.3781433 -0.39033586 0.20594396 0.5410908 0.21763308 0.10992928 0.34515977 0.06515327 -0.063029915 0.2421025 -0.34008664 0.24559914 0.16480397 -0.012565124 -0.22452272 0.37015483 0.07041813 -0.37957165 -0.55824465 -0.20560819 -0.029005308 -0.093658745 0.20203277 0.20654643 -0.14321978 -0.17796053 -0.43448597 -0.22877991 -0.27511612 -0.23103905 0.13366218 0.44763076 -0.4707834 0.04329425 -0.27629685 -0.41881505 -0.021216433 -0.7729274 0.2067137 0.0057352693 -0.18782084 0.14756982 -0.4268531 0.01625726 -0.0018568813 -0.15822004 0.06411233 -0.037400454 -0.12186123
5601 -0.24957743 -0.16781758 -0.0384402 -0.6068473 0.060782783 0.2862802 -0.17829686 -0.11354481 0.091278516 0.043691125 0.06124882 -0.055909794 -0.059714112 -0.102685906 0.0644649 0.32555652 -0.3344178 0.22586921 0.545132 0.19813621 0.11419651 0.39415038 0.043516148 -0.029431863 0.2176569 -0.31086588 0.19157793 0.11915908 -0.029587278 -0.2429884 0.37609363 0.09960608 -0.37622693 -0.5681547 -0.24098851 -0.047216862 -0.09077486 0.18270609 0.23180276 -0.19554646 -0.20353618 -0.44089085 -0.23355715 -0.28956956 -0.23750864 0.16032298 0.46297038 -0.43303046 0.0746971 -0.31654397 -0.37703085 -0.0325616 -0.8514775 0.22191142 -0.030865567 -0.2709095 0.19170354 -0.4114672 0.039816596 0.021287646 -0.13546057 0.070020676 -0.05237699 -0.083449595
4790 0.2890396 0.25846496 0.12838218 -0.7391289 0.6968849 0.22585405 -0.12332139 -0.3716564 0.09251473 -0.3025842 -0.1298036 -0.20417488 -0.10505402 -0.50393873 -0.025055835 0.0008541535 0.041212644 0.22585376 -0.019959629 0.685248 0.49318638 -0.10849416 -0.30621248 -0.020403383 0.18107119 -0.020078722 -0.36088783 0.22061172 0.07311846 -0.11761271 0.38197118 0.4765805 -0.27955532 0.62552834 0.4786907 0.076144636 -0.35031447 0.11994161 -0.27854297 0.68577534 -0.12914982 0.21601868 -0.4326622 -0.04458727 -0.03346091 0.81166536 0.16752315 -0.18128787 0.2967325 0.14083143 -0.3719312 0.38473335 -0.2191978 -0.62644464 0.16940139 -0.31375077 -0.064291365 -0.18731742 -0.15638453 0.07839334 -0.1561854 -0.24813206 0.007828504 -0.017325182
2626 -0.012590845 -0.20930143 0.28462702 -0.37972817 0.72178525 0.29023725 -0.37859988 0.18842883 0.50197595 0.010039159 -0.51393795 -0.36092955 0.05871245 -0.26147163 -0.25640297 0.7672963 -0.73410517 -0.16462713 -0.104996175 0.7277826 0.56318355 -0.60004145 -0.6269641 -0.52737194 0.13607213 -0.21817334 -0.5867708 -0.50625646 -0.14746684 0.06921757 -0.47221184 -0.52758616 -0.31633818 0.16013725 0.15761377 -0.20150146 -0.408438 -0.42858833 -0.6224748 1.0077552 -0.08303149 -0.16636683 -0.074539125 -0.5840614 -0.248874 0.3304123 0.25529096 -0.14039996 0.09809832 -1.1787125 -0.45314893 -0.004814027 -1.1157717 -0.72661203 -0.12684698 -0.82190996 -1.2137096 -0.29238895 0.16769062 -0.853834 0.12854938 0.013891916 -0.6873908 -0.38754824
2308 -0.20638622 -0.5193977 0.14683458 -0.46022376 -0.17072316 0.06545607 0.47738308 -0.27975908 0.047264773 0.238748 -0.29364192 -0.27677032 0.10347039 -0.13969065 0.21717024 0.11685691 -0.17561068 -0.036811247 0.31895402 -0.17653273 0.009447058 -0.120006 -0.47743157 0.03373325 0.047029406 0.13976271 0.3096015 0.48073694 0.20042872 -0.20063981 0.4508658 0.1004508 -0.06584068 -0.49322823 0.054941423 -0.119944096 -0.45393294 0.41748124 -0.06442459 0.28028756 0.10552345 0.39959633 -0.62765014 -0.38258162 -0.5511035 -0.013218145 0.036218602 -0.027339127 0.30358148 -0.75006586 -0.018499553 -0.0042066746 -0.039009668 -0.5364548 -0.010145617 -0.33207488 0.16492301 -0.19476326 -0.16577157 -0.19950251 0.28174627 0.021233762 -0.02323073 -0.050790355
5879 -0.47514135 0.23144126 -0.13193367 -0.4510572 -0.3837596 0.37530848 -0.40401813 0.11390085 0.14017151 0.47803977 -0.5818675 -0.42436197 0.12604769 0.06224156 -0.41651404 -0.0584933 -0.76776534 0.40523347 0.22318941 0.6849931 0.3868465 -0.2232994 -0.12580863 -0.071673185 0.39346826 0.03383526 0.10646718 -0.1587832 0.085388824 -0.34031722 -0.28312755 0.2862866 -0.18237063 -0.3045902 -0.030614555 -0.20132007 -0.13073689 -0.16321345 -0.2174966 -0.13444147 -0.40721315 0.504655 0.07365179 -0.024080457 -0.0896458 -0.16323869 0.8586999 0.06540961 0.49688283 -0.4070586 -0.49044463 0.15823917 -0.69612235 -0.21840622 0.4836298 0.24787468 -0.37124583 -0.12881373 -0.01921591 0.23437154 -0.13422862 0.12255844 0.06752447 0.3960915
5159 -0.011795408 -0.1245343 0.15312201 -0.07830522 -0.20111358 0.19663946 -0.14455341 -0.039855175 0.14129943 0.10123961 0.29441643 -0.26212162 -0.084948786 -0.28169933 0.731802 0.74546516 -0.38120562 -0.41445696 -0.053141452 0.535437 0.03694197 -0.18743663 -0.27023965 -0.1652465 -0.22002988 0.24220416 -0.36062524 0.18963651 -0.12544361 -0.25723132 0.20189382 -0.47228622 -0.6674437 -0.26123354 0.057699434 0.19740508 -0.056631096 -0.08124829 -0.719178 0.34034365 -0.33501002 -0.013973307 -0.12045737 -0.04091749 0.39924967 0.1707963 0.21819803 0.22198571 0.2183227 0.18611015 -0.09560581 0.60056496 -0.26844665 -0.046150167 0.45602185 -0.19665788 0.02251268 -0.3239554 0.1261943 0.006487665 -0.3012936 0.46007204 0.02786811 0.3182816
5747 -0.23634782 -0.5269073 -0.053792506 0.018658953 0.3527087 0.33273217 0.10966063 -0.0038327829 -0.19704112 0.14278142 0.23609337 0.13163215 0.007520534 0.03460163 -0.67095727 0.7017306 -0.27958935 0.19291604 0.5571589 0.5777597 0.29011622 -0.496224 -0.055270746 -0.16857775 -0.66960174 -0.1446674 -0.15369911 -0.19652346 0.27574825 -0.0034597323 0.0692034 0.18337044 -0.3789832 -0.41819835 -0.23173808 -0.504763 -0.2271087 -0.34049907 -0.47949415 0.2390389 -0.21063526 0.040643588 0.15696886 0.28380173 -0.002173363 0.31114948 -0.19041651 0.4277203 0.5066578 -0.34408823 -0.2827752 1.006692 -0.34450397 0.027058734 0.2608543 0.008869661 -0.16807179 -0.044885635 0.60303575 -0.03368421 0.15426192 0.36904302 -0.12781154 0.49207962
3845 0.03379961 -0.28623798 -0.0027268718 -0.09537329 -0.073675185 0.15347041 -0.017209636 0.5609882 -0.1605151 0.08530191 -0.09003093 0.13611649 -0.38025528 0.22527388 0.16739368 0.19255541 -0.24118781 0.3592043 0.6180011 0.40989187 -0.027737262 -0.25288942 -0.13010117 0.369703 0.05349605 0.078145005 -0.10625195 -0.13893434 -0.10668299 0.08128563 -0.046092413 -0.16813982 -0.15081608 -0.5269983 0.43023598 -0.20089468 -0.43673432 -0.2248118 -0.014251387 0.17345487 -0.11019439 0.12682065 -0.42713737 0.122990504 0.18875419 -0.21896419 0.32660875 -0.45174596 0.23139201 0.011231724 -0.21900691 0.46905565 -0.29261294 0.16709565 -0.19683109 -0.19570312 0.17856665 -0.42162314 -0.056291815 -0.089216985 -0.3138596 0.10261919 0.09703908 0.4282803
3265 0.013250728 -0.34667236 0.0027774805 0.005251153 -0.047986664 0.13627145 -0.01171284 0.50781155 -0.11406655 -0.017842215 -0.111582115 0.15186256 -0.34431192 0.18576035 0.17514384 0.2453912 -0.23960973 0.28873494 0.56507945 0.38715422 0.040292837 -0.25383577 -0.11420832 0.29439372 0.071969956 0.056457482 -0.11847351 -0.15411834 -0.11884452 0.089555696 -0.029529091 -0.16135544 -0.13271557 -0.5047778 0.40665963 -0.23537005 -0.4188421 -0.15017115 -0.054233354 0.11903932 -0.14379703 0.053655293 -0.42723316 0.13594656 0.22775564 -0.2693392 0.27611697 -0.47878706 0.24610664 -0.0011202538 -0.274851 0.5120719 -0.36804277 0.15353839 -0.24256687 -0.15995294 0.19197497 -0.41567355 -0.015075275 -0.07172008 -0.28363422 0.13238582 0.19397824 0.47227794
4893 -0.034958344 -0.36563966 -0.02589492 -0.01801364 -0.030779205 0.118897766 0.00483094 0.5138476 -0.13836895 0.021947922 -0.13635626 0.09626399 -0.30945575 0.21260794 0.1421452 0.23839118 -0.24895872 0.26404896 0.59720135 0.32480773 0.01917983 -0.23660843 -0.11431296 0.3250125 0.040714625 0.055158205 -0.114089936 -0.16196354 -0.106747 0.102735385 -0.012667281 -0.11838749 -0.18171874 -0.52740765 0.40676576 -0.1916905 -0.41730496 -0.12547673 -0.037066724 0.1723784 -0.15943977 0.047821637 -0.445073 0.15086949 0.25965974 -0.261044 0.2687398 -0.4577825 0.20856027 0.020904386 -0.2483579 0.42759976 -0.38424334 0.14841788 -0.1927198 -0.21445782 0.17475632 -0.4534385 -0.010580452 -0.047284674 -0.21674195 0.07365441 0.17669173 0.4660907
6714 -0.39035755 -0.48521027 -0.25089487 -0.49148542 0.09638806 -0.04159025 0.13614455 0.13616808 0.43674907 0.1218822 0.24994285 0.032831747 0.22616443 0.060737934 -0.63574547 0.4397373 -0.60110486 0.31658974 0.6323341 0.18409833 0.16461141 -0.45341083 -0.1487687 0.033592995 -0.10856909 -0.006726211 -0.23608634 -0.26876277 0.45640376 -0.16454457 0.0074310196 0.66616887 -0.0025259955 -0.3164968 -0.21167397 -0.31403837 -0.4643771 -0.13244025 -0.50134987 -0.018088793 -0.45456696 -0.040624723 -0.23100658 -0.26447588 0.6958661 -0.24799131 0.364108 0.5139832 0.27687785 -0.27868065 -0.24681285 0.63275194 -0.11705433 0.0571879 0.41834074 0.20184238 0.101055965 -0.1526027 0.32265377 -0.14647695 -0.10938433 0.27051178 0.37975487 -0.19213328
5578 0.18448639 -0.20138733 0.16861558 -0.35051 -0.22769213 -0.17690288 0.10526681 0.5795543 0.13463184 -0.24735652 0.31316695 0.044469062 -0.2637593 -0.226474 -0.012522536 0.060393505 -0.27603915 0.15979664 -0.0033556854 -0.051467672 0.5010736 -0.60742176 0.2938395 -0.45708358 -0.044597793 0.0021592611 0.0132540455 0.19955482 0.16501023 -0.12471992 0.11352327 0.29188347 -0.124698386 -0.6609246 -0.39966196 -0.6414302 -0.27927208 -0.25065705 -0.35966256 -0.020169796 0.25836268 -0.16203685 -0.47718143 -0.16705926 0.28922743 -0.20717962 0.33599612 0.16394734 0.2666948 0.037583202 -0.35345367 -0.15794897 -0.18772347 -0.147123 0.016019685 -0.45781907 -0.27526736 0.024113283 0.23741746 0.2645996 0.25993815 -0.13521606 0.03928536 0.728704
2778 -0.3772036 -0.30973318 0.8499941 0.25372142 0.1635181 -0.4739925 -0.027752575 -0.20482506 0.1500089 0.21570042 -0.0707801 -0.035542924 -0.32167566 -0.9202149 -0.109275915 0.3452745 0.36833403 0.32751426 0.3744245 0.6822755 0.31461966 -0.27468896 0.62433124 0.0014494923 0.15801066 0.060990192 -0.13937797 -0.114158906 -0.18278763 -0.5712422 -0.124949455 0.040124837 0.35238403 -0.51062053 -0.38449898 -0.25001603 -0.60770375 -0.19432384 0.17227568 -0.17364244 -0.08625602 0.11401145 -0.047827248 0.30610573 0.49993798 0.0147556765 0.1637432 -0.23173274 -0.28869203 -0.22508372 0.120807365 0.20220412 -0.30592945 0.27242488 0.6828431 -0.4029075 0.016198345 -0.51958215 0.34284315 0.031061672 -0.43160385 -0.14500482 0.3156751 -0.22529227
5579 0.2984566 -0.09935835 0.23868378 -0.17533998 -0.23402618 -0.2775396 0.1349331 0.45272064 0.24368827 -0.11556755 0.40859506 0.0431833 -0.232767 -0.3313061 -0.121287234 0.11467058 -0.32962087 0.03677256 -0.13639037 -0.03463538 0.52280957 -0.49882418 0.17983155 -0.5112768 0.12541367 0.076444276 -0.01651786 0.38102937 0.005365001 -0.18997651 0.19576621 0.15869755 -0.027782291 -0.44778162 -0.3236953 -0.7188581 -0.4265589 -0.20931378 -0.26380402 -0.20796642 0.24632592 -0.1933536 -0.395115 -0.15774584 0.2837981 -0.36231676 0.33631304 0.09388901 0.30673704 -0.209701 -0.59662503 0.1107182 -0.117627725 -0.003902198 -0.13527375 -0.3452923 -0.06658675 -0.11093941 0.16582067 0.4299914 0.3500121 -0.039249264 -0.1939504 0.66181946
55970 -0.48341897 -0.42785984 0.22502732 0.20288287 -0.05335985 -0.00092856615 -0.32741234 0.16365165 -0.40809667 0.39847076 0.008423117 -0.22677581 0.17702956 -0.07356672 -0.2511659 0.087520756 -0.059184704 0.32575023 0.057572585 0.2952701 0.5777175 -0.108864605 0.3769208 0.12614003 0.18729913 -0.3051483 0.25891566 -0.050400365 -0.37002468 0.04659384 -0.01077256 -0.012888393 -0.16123809 -0.5471892 -0.32930243 0.30837232 -0.4309134 0.09191231 -0.17272122 -0.16139892 0.043941222 0.24026802 -0.6103921 -0.21067989 0.011355007 -0.2922112 0.26673084 -0.24376845 0.318704 -0.19211458 0.31603843 0.23477958 -0.46906304 -0.016891422 0.10226814 -0.089563005 0.24059545 -0.43652603 0.0095408885 0.11691029 -0.22190216 -0.32922077 -0.02441569 0.24752353
6256 0.34484667 -0.22388601 0.18131965 -0.1501066 -0.15374352 -0.6780322 0.07269152 0.30363712 -0.5132208 0.020106759 -0.16702676 -0.36482826 -0.36621934 -0.3613128 0.030450867 0.36134976 0.06714512 0.39393947 -0.14520122 -0.056462966 -0.009222117 0.035636365 -0.25992125 0.3280541 -0.25159228 -0.028514752 0.7075276 0.15360421 0.16261904 -0.28816378 0.8883863 -0.027054269 -0.45823842 -0.77692676 0.29982078 -0.8223514 -0.52834094 -0.24716653 -1.1235265 0.31288573 -0.20988272 -0.22928534 -0.27859682 -0.04716791 -0.52636987 0.042374894 0.24334857 -0.162482 0.19183896 -0.32488722 0.2701862 -0.12978695 -0.11582797 -0.6850366 0.98647237 -0.5074062 -0.01309623 0.26387405 -0.16890627 -0.8936912 0.78271073 0.24905418 0.31342706 0.26827946
6257 0.38073206 -0.18886119 0.21604012 -0.1317759 -0.24805562 -0.6783383 0.012705562 0.30632773 -0.4308267 0.13520224 -0.2365929 -0.24117412 -0.47344896 -0.34965616 0.04199561 0.34726506 -0.0059468187 0.37135842 -0.12637083 -0.051925875 0.12472395 0.03199538 -0.22471286 0.23166117 -0.27010047 0.051543422 0.8078183 0.17548133 0.11984143 -0.23480706 0.95025796 -0.12569696 -0.4947986 -0.7418579 0.2462708 -0.79409474 -0.52752566 -0.23911273 -1.1614251 0.30548277 -0.23871864 -0.29184142 -0.27742776 0.071521714 -0.5950144 0.0696817 0.2594219 -0.16478051 0.18030706 -0.3569918 0.29001367 -0.04547548 0.026402906 -0.7308566 0.99471223 -0.48255625 0.031340905 0.2268445 -0.21704331 -0.837342 0.7148202 0.26705658 0.36631748 0.18015988
6258 0.43012738 -0.23209333 0.20043053 -0.19866197 -0.23633692 -0.71480846 0.0863343 0.31684464 -0.4661018 0.13711292 -0.19848183 -0.27018473 -0.45612684 -0.36240327 0.08507847 0.3995374 0.038839065 0.39947474 -0.13453114 -0.112974994 0.061492007 -0.006031842 -0.21407953 0.20662542 -0.30038702 0.0059324307 0.7843141 0.15290007 0.073008224 -0.27701575 0.9104228 -0.111181945 -0.53300023 -0.7656384 0.2666712 -0.76776975 -0.48092884 -0.22079834 -1.2024777 0.27737254 -0.22586738 -0.261017 -0.3353457 0.07848501 -0.5668781 0.13120721 0.25406146 -0.1286146 0.13483255 -0.41787344 0.22850451 -0.11265996 -0.01786425 -0.6847541 0.9480011 -0.44416204 0.013839943 0.28544247 -0.26882842 -0.84082836 0.7169642 0.20959169 0.29820356 0.20338728
3480 -0.47003773 0.12817927 -0.03762343 -0.30751905 0.044494513 0.48707342 -0.05900097 0.3725684 -0.2781419 0.19740091 0.3664162 -0.3069309 -0.11097773 -0.227978 0.030134736 0.73880565 -0.6317623 0.06003926 0.31636196 0.17185657 -0.06449519 -0.3582807 0.06329118 -0.4149081 0.23480034 0.1371613 -0.26555726 -0.072491005 0.14638333 -0.2415785 -0.033305205 -0.4669232 0.016101744 -0.23515506 0.0963379 -0.15842657 -0.5851815 -0.12728725 -0.3126676 0.045609966 -0.028048495 0.20531423 -0.122762434 0.024069041 0.16677096 -0.09926928 0.5070143 -0.07982629 -0.10653397 0.011960354 0.47834843 0.31352702 0.18044655 0.1452524 0.8041566 -0.07021559 0.3066941 -0.24373403 0.5345346 -0.1999691 -0.31002897 0.089825876 -0.116865784 0.39495885
5880 -0.44736615 0.08043329 -0.22363739 -0.24613726 -0.31130806 0.41204375 -0.35064954 0.22938502 0.27713856 0.4166885 -0.40158346 -0.31667885 -0.13015589 0.041875213 -0.377077 -0.0019386037 -0.53502476 0.44860858 0.110077366 0.61368364 0.13670737 -0.11039981 -0.16307922 0.050736208 0.30371308 0.14529708 0.2523974 -0.22904028 -0.054687068 -0.24635726 -0.30999383 0.48553082 -0.21766171 -0.37532568 -0.08361401 -0.048394043 -0.1511936 -0.20974053 -0.5295378 -0.05870506 -0.27929908 0.45513332 0.07956885 0.006215275 -0.081289254 -0.17407896 0.74152714 0.08347385 0.78947157 -0.53307587 -0.4639768 0.17667183 -0.86690164 -0.1147825 0.49169022 0.11653479 -0.4560552 -0.27675188 0.1924049 0.26592672 -0.12520343 -0.078988545 0.0279427 0.29022163
3717 -0.19496423 -0.1781808 0.05760971 -0.23591588 0.42214462 0.053742517 -0.5186908 -0.39029357 0.5387073 0.24909848 0.06034322 0.074360944 -0.09945216 -0.22105551 0.28661165 0.31508783 0.07560777 -0.28802717 -0.19842592 0.029088488 -0.2932702 0.36804518 -0.19453564 0.11895783 0.13337956 -0.026377533 -0.03080966 0.57546645 -0.0011503458 -0.20159182 0.11615399 -0.16914317 -0.7615909 -0.14884223 0.23488632 -0.10027679 -0.14223224 -0.03833143 -0.5699809 0.57133317 -0.24587421 0.196509 -0.15963891 0.34588546 0.54763514 0.11908037 0.08890215 0.22980855 -0.20460108 -0.7130587 0.20424038 1.1895158 -0.28244156 -0.38750747 0.3244873 0.09836799 -0.23199677 -0.107867956 0.35972592 -0.11827744 -0.33456162 -0.24462828 -0.23516877 0.27728522
53632 -0.044712786 -0.23049827 0.30005485 0.15220314 -0.23644294 -0.31425494 0.33577168 -0.040758096 -0.3327066 0.2539778 -0.41387522 -0.5177539 -0.36218783 -0.06832788 -0.32110095 -0.120518975 -0.050946377 0.26538196 0.20997395 -0.044778194 0.40704656 0.19418417 -0.5635721 -0.44761667 -0.027547846 -0.3454639 0.007603495 0.124156214 -0.36579746 0.18541622 0.6739698 -0.009982521 0.0744965 -0.69386005 -0.140312 -0.23478536 -0.59926677 -0.065526195 -0.29988897 -0.06201134 0.18742982 0.054520145 -0.26439372 0.044200167 -0.20740151 0.0917005 0.07081057 -0.3428318 -0.09964522 -0.28006572 0.16237614 0.30671895 -0.09874918 -0.21102951 0.24877506 -0.2732855 -0.07380665 -0.49456054 -0.4894544 -0.04270996 0.15775834 -0.12136207 0.071756184 0.0265318
5881 -0.38838273 0.0027011796 -0.29285428 -0.2592844 -0.3328675 0.27953035 -0.5241438 0.20034254 0.13697502 0.46655062 -0.37235215 -0.31008568 -0.17275396 -0.029333191 -0.37899718 0.14106789 -0.6167136 0.4392736 0.19417968 0.4933324 0.10412267 -0.1166772 -0.22687379 0.028296256 0.37032992 0.15669046 0.24303105 -0.25809103 -0.16576971 -0.13762754 -0.2842799 0.54812336 -0.14735715 -0.40448305 -0.12805915 -0.04639666 -0.19583395 -0.17713314 -0.46659783 0.057203975 -0.3306656 0.48577675 0.11686271 -0.011212484 -0.03662892 -0.19891141 0.6866967 0.09295851 0.83628213 -0.5402818 -0.41704786 0.13956973 -0.8554755 -0.111379884 0.44359237 0.0934705 -0.43819386 -0.12753843 0.22488248 0.30748317 -0.23892169 0.08575102 -0.14081825 0.31631124
596 -0.05180516 -0.14740652 0.17866883 -0.38872147 0.56672543 0.07870811 -0.1488703 0.22279873 0.20593035 0.12089195 0.12550987 -0.3296527 -0.26025906 -0.322102 -0.36146268 0.14257455 0.11342089 0.22694555 -0.13645129 -0.47719002 0.21421574 0.012320106 0.09458859 -0.0990218 -0.24393082 0.059439857 0.4077946 0.2899049 -0.07975223 -0.22275704 0.36902845 0.044220205 0.14248048 0.069118194 0.021316065 -0.71032983 -0.29466563 0.45849714 -0.45461342 0.65225685 -0.07649655 -0.14851557 0.05668939 -0.83020914 0.44155934 0.24633121 -0.23819864 -0.12473193 0.16196546 -0.14127639 -0.09006835 -0.081400834 -0.7585371 -0.4512701 0.16984013 -0.35230246 0.5331033 -0.42031303 -0.51363766 0.19431536 0.012667647 0.57584053 -0.31257588 0.3315565
4303 -0.0634592 -0.26344883 0.04406877 -0.4282051 -0.11322883 0.020423597 0.7141003 -0.1992275 0.2353676 0.30323896 -0.3023267 -0.35586983 0.030973209 -0.24674025 0.3301444 0.035502646 -0.16895346 0.088077076 0.5032646 -0.2967971 0.12536381 -0.030799743 -0.63240606 -0.07245533 0.1423681 -0.158252 0.17131785 0.6097406 0.2656617 -0.12695374 0.26700956 0.025590694 -0.09526923 -0.59334856 0.014582775 -0.17735524 -0.60328674 0.32387784 -0.26071337 0.3202547 -0.083216526 0.3961247 -0.5000269 -0.40841365 -0.49780464 0.014891027 0.08617445 -0.14612702 0.30936256 -0.736909 0.037469827 -0.027842864 -0.009878942 -0.4643778 -0.1236154 -0.39752415 0.32050672 -0.25112647 -0.24233596 -0.07345754 0.17068848 -0.11842898 -0.08427918 -0.091648914
5564 -0.04568922 -0.19660658 0.29628837 0.14238621 -0.26924676 -0.36085397 0.27802902 -0.05177385 -0.28681722 0.22608678 -0.49021813 -0.5600449 -0.39018485 -0.07873751 -0.3046188 -0.1284803 -0.02413746 0.25011435 0.27326912 0.021613145 0.4188372 0.1437857 -0.54167 -0.44385916 0.043870803 -0.282546 0.017801635 0.16402836 -0.35490978 0.19765298 0.7442644 -0.01623564 0.06863175 -0.6264948 -0.14355348 -0.21660294 -0.55561495 -0.060165107 -0.28663436 -0.03478524 0.14462796 0.021178242 -0.28238687 0.06607783 -0.2088447 0.072496384 0.079694904 -0.3234158 -0.0786598 -0.2549705 0.22005749 0.32335168 -0.080427155 -0.22896877 0.23101625 -0.26578775 -0.08400269 -0.4920874 -0.47848418 -0.066536844 0.19069883 -0.15521167 0.094009906 0.039268892
5565 -0.07807074 -0.21400784 0.27218285 0.1607197 -0.25865975 -0.3240991 0.27854097 -0.08210336 -0.35642692 0.23733053 -0.4710284 -0.5623455 -0.38416338 -0.03832246 -0.3209765 -0.12118925 -0.044684716 0.2663745 0.20629783 0.027657889 0.3704728 0.24080044 -0.4750213 -0.4961083 0.011537053 -0.3233808 -0.00014746124 0.10841167 -0.36018312 0.17128174 0.66559607 -0.023873745 0.11511185 -0.6756206 -0.1651814 -0.17562391 -0.5414514 -0.10501309 -0.31462553 -0.06346721 0.19651084 0.08945366 -0.22714561 0.058528516 -0.1472934 0.0945006 0.06533893 -0.3285797 -0.049138587 -0.25832087 0.16604991 0.30068108 -0.121727675 -0.2363499 0.25692388 -0.2901368 -0.10198226 -0.456916 -0.48688835 -0.08047497 0.14696932 -0.19273387 0.06564494 0.09082247
51422 -0.009567102 -0.24246198 0.26673552 0.20993845 -0.27812883 -0.32731038 0.2861405 -0.09493521 -0.3637707 0.24395043 -0.4227775 -0.53575975 -0.38859323 -0.029108364 -0.33106145 -0.12789962 -0.07312574 0.24192071 0.24413064 -0.014919965 0.3471118 0.1897634 -0.5054417 -0.5194 -0.0052919434 -0.27978358 0.022497388 0.16883238 -0.3611707 0.14444265 0.7392273 -0.007306871 0.091985725 -0.6571922 -0.15849033 -0.1795043 -0.57032174 -0.11665478 -0.35673422 -0.04766122 0.17443281 0.05909204 -0.20681836 0.04851899 -0.13679422 0.056468572 0.058983173 -0.3185154 -0.06032832 -0.24786045 0.21857053 0.29330492 -0.110721275 -0.23281088 0.22863716 -0.31329194 -0.08101934 -0.4601938 -0.45557815 -0.074479125 0.11076292 -0.16767552 0.03236224 0.04821095
5571 -0.019323258 -0.20315382 0.31378856 0.16419044 -0.31296706 -0.3309526 0.28373006 -0.03209207 -0.3595017 0.273352 -0.41250214 -0.5306972 -0.3944388 -0.03335077 -0.30461076 -0.1493495 -0.03206441 0.2688834 0.25168532 0.015559 0.3793897 0.24573466 -0.5475489 -0.49998748 0.020820608 -0.35756493 0.028248917 0.11934682 -0.35921815 0.13901186 0.70075077 -0.003500071 0.13658561 -0.59806925 -0.14655797 -0.21762334 -0.60326946 -0.060521748 -0.3311631 -0.036953755 0.14369525 0.034024756 -0.2784441 0.06493067 -0.20346567 0.12225202 0.09439864 -0.33012927 -0.10101156 -0.26448923 0.20747636 0.30460224 -0.06941492 -0.2270364 0.26208943 -0.26958263 -0.17524056 -0.49126235 -0.4250598 0.019273834 0.11666272 -0.17167029 0.045279145 0.034288533
100132074 -0.1380092 -0.2940816 0.018473541 -0.444 -0.09773777 0.081638366 0.69538844 -0.24023834 0.2673347 0.36662436 -0.33340293 -0.3804377 0.004376308 -0.22564586 0.36177403 0.04131887 -0.19227499 0.07328943 0.51708794 -0.35418835 0.105520085 -0.048295334 -0.6019104 -0.08145851 0.13387764 -0.12386492 0.17226656 0.60818726 0.19941655 -0.13392144 0.28456834 0.059300397 -0.10425478 -0.64392805 0.006907388 -0.20420465 -0.64836156 0.3073457 -0.2833586 0.27145165 -0.09116636 0.41690016 -0.4602382 -0.36784446 -0.42932984 -0.02565712 0.09306374 -0.20174506 0.2886533 -0.63994694 -0.01756047 -0.065008044 -0.0028493004 -0.48305523 -0.103689596 -0.34492114 0.28686014 -0.26575434 -0.22749527 -0.05205991 0.16001636 -0.1165112 -0.09339428 -0.074328125
5563 -0.1296326 -0.24632148 0.289031 0.15267606 -0.20244859 -0.23184669 0.35732025 -0.04905723 -0.231438 0.2188611 -0.46103752 -0.5825812 -0.4744076 -0.07118018 -0.35024253 -0.15340216 -0.020085365 0.37675846 0.297475 -0.03147223 0.3663464 0.13771951 -0.5381197 -0.44147974 -0.028256854 -0.35609877 -0.007272367 0.16886665 -0.4141702 0.23740883 0.6689253 -0.042085163 0.082080014 -0.71599895 -0.10019093 -0.13712184 -0.59063756 -0.06879061 -0.41116348 -0.13482971 0.12243312 0.068036474 -0.21715659 0.06547757 -0.12364874 0.0006409165 0.07375928 -0.3343882 -0.11602006 -0.24183226 0.16592978 0.34894222 -0.05476193 -0.23717226 0.23766117 -0.2919443 -0.060320076 -0.43369052 -0.4640858 -0.006148102 0.119033165 -0.122487806 0.037654422 0.11515966
5562 -0.116203286 -0.22793517 0.31627324 0.13285907 -0.24340862 -0.24814716 0.3112898 -0.0128565235 -0.28502068 0.18878569 -0.49105766 -0.54182667 -0.396459 -0.023440693 -0.37853014 -0.123582646 0.016671916 0.3256239 0.27641428 -0.0063515618 0.3195982 0.18352428 -0.50814 -0.4613676 -0.006042928 -0.39253223 0.032685824 0.15003814 -0.37421948 0.20735808 0.6328403 -0.093395 0.048799004 -0.6402126 -0.048978847 -0.1466482 -0.5869579 -0.10161166 -0.3873508 -0.09266002 0.12725088 0.06385056 -0.24951188 0.049704246 -0.09772494 0.023874255 0.055957317 -0.37060812 -0.10577625 -0.24869512 0.21600567 0.29084778 -0.02833274 -0.292797 0.2998405 -0.34640336 -0.09326898 -0.4633055 -0.4699278 -0.06366002 0.10403938 -0.10576459 0.16749358 0.041827463
2784 -0.12468098 -0.3739776 0.491902 0.088131815 -0.18777345 0.14443116 -0.18446097 0.062017605 -0.31752658 0.27704698 -0.06867621 -0.06988569 -0.22281232 0.15268183 0.14367792 -0.055481456 -0.013079415 0.60796756 0.045958232 0.33982915 0.28064236 -0.36799774 0.23996104 -0.06431655 0.084715284 -0.1722078 -0.0037343944 0.07818682 -0.16647922 -0.094131 0.19454864 0.087970346 -0.22886038 -0.43553278 -0.15963696 0.21441375 -0.5093717 -0.015886039 -0.15457655 0.0041140458 -0.25167233 0.106442094 -0.3733622 0.021270854 0.09349812 -0.21292377 0.28865317 -0.3818159 -0.18918866 -0.44658482 0.2420183 0.050959595 -0.56151634 -0.062903345 -0.082161315 0.037751302 0.13504219 -0.63811296 -0.17583308 -0.014275351 0.11779692 0.055392057 -0.32799754 0.15092123
815 -0.2804791 -0.30845776 0.4621961 -0.08451909 0.06393708 -0.4275768 -0.120102614 -0.054482725 -0.2134424 -0.312719 -0.0284459 0.1811831 -0.22606975 -0.051889032 -0.37199044 0.034748897 -0.17998014 0.074783534 0.18974353 0.35829532 0.21507417 -0.3657121 0.15030137 -0.057791114 0.18499576 -0.012010106 0.6779994 0.020934833 0.08408184 -0.5615072 0.044508375 -0.34188992 0.23480937 -0.26734135 -0.06640356 -0.30753553 -0.03845419 -0.11352136 -0.03128493 0.006283855 -0.04391338 0.4353182 -0.5183974 -0.3343664 0.26234716 0.394629 0.38710788 0.10803819 -0.120263994 -0.18785101 -0.2782048 -0.15988591 0.23458716 -0.40544388 0.17797093 -0.61589926 0.25910637 -0.6318656 -0.520583 0.23182482 0.26872513 0.42124468 -0.29407144 0.37454715
818 -0.2981782 -0.30955195 0.509297 -0.01920289 0.12942237 -0.40054148 -0.20076182 0.006900102 -0.22639182 -0.28798229 -0.046631895 0.1547602 -0.24859685 -0.019727243 -0.33516815 -0.037329026 -0.17323868 0.078358896 0.18631987 0.36636794 0.240918 -0.31876257 0.15612993 -0.06401976 0.18167491 -0.025280925 0.6654266 0.05274581 0.07950179 -0.5019782 0.050565116 -0.31022957 0.19430819 -0.30845615 -0.025613597 -0.33493134 -0.014155611 -0.08543957 -0.04383162 -0.0018931298 -0.046415158 0.46165383 -0.53696454 -0.3497822 0.23743804 0.4183339 0.44159597 0.08907092 -0.06699075 -0.09520987 -0.23415129 -0.13686593 0.30008644 -0.46670207 0.17487279 -0.59225327 0.2537597 -0.5892498 -0.51300544 0.19376618 0.2802643 0.4350321 -0.28035098 0.3215449
816 -0.30271497 -0.26402897 0.46974504 -0.10554348 0.07464073 -0.39328066 -0.17192253 -0.03557576 -0.20743522 -0.265767 -0.031163303 0.16938609 -0.21967296 -0.021062007 -0.3493665 -0.011284646 -0.16771778 0.100389294 0.19152978 0.34523112 0.21531439 -0.34229103 0.12366781 -0.10493955 0.18368605 -0.03327237 0.6430709 0.06801632 0.045970988 -0.5273708 0.03306199 -0.30915198 0.27656987 -0.31107956 0.048896737 -0.2704035 -0.069839 -0.04633292 -0.05689257 0.073769376 -0.020492539 0.4774623 -0.53641593 -0.36021423 0.2504107 0.39894193 0.38989967 0.14409605 -0.09878523 -0.14708081 -0.28991145 -0.19664899 0.24666753 -0.43710396 0.18791397 -0.5608257 0.26589102 -0.6026266 -0.5486331 0.1806683 0.26402953 0.43258414 -0.30369654 0.39049944
817 -0.32816994 -0.2959662 0.47788593 -0.048193764 0.101747334 -0.42627046 -0.18840836 -0.011507616 -0.2143562 -0.2264533 -0.045411795 0.13534002 -0.20263128 0.017666414 -0.30172944 -0.033206154 -0.14600755 0.084326 0.18261641 0.3462805 0.19524646 -0.3132968 0.18290742 -0.07600362 0.10407127 -0.053012483 0.65805346 0.007111618 0.04819601 -0.54142195 0.08386516 -0.36039722 0.2579301 -0.29742417 -0.027571343 -0.28648016 -0.035607327 -0.04622259 -0.05728574 -0.013014451 -0.053898048 0.45490423 -0.50909513 -0.34929317 0.24474515 0.4328394 0.4545245 0.13609616 -0.0818911 -0.12015284 -0.27892792 -0.09764294 0.23929375 -0.44758525 0.16678128 -0.56992906 0.33294687 -0.5682583 -0.5596739 0.18476284 0.23824444 0.44187543 -0.3203454 0.34580997
2792 -0.4188208 -0.5882012 0.40067226 0.29061386 -0.12289948 0.1457458 0.042996313 0.05392602 -0.27544278 0.19349803 -0.20761658 -0.020928765 -0.33303255 0.24980035 -0.23597923 0.2641417 -0.01875697 0.3169456 0.0661212 -0.02411889 0.30388397 -0.25241223 0.25323412 0.0679811 0.14439231 -0.18912771 -0.07532029 0.06621985 -0.28193572 -0.22161129 0.039927788 0.0005287349 -0.27550322 -0.58466905 -0.17196317 0.40032068 -0.4131186 -0.10204518 -0.018639885 -0.15765628 -0.08243201 0.07367738 -0.37231842 -0.08087156 0.018348904 -0.20320266 0.1447619 -0.5040725 -0.12962745 -0.2509096 -0.06060607 0.29850534 -0.37899587 -0.16737482 0.33131212 0.027584186 0.43276367 -0.5307503 0.046523597 0.06296781 0.20368317 -0.1772761 -0.3661744 0.100417994
1387 0.028439915 -0.023373729 0.47033513 0.07662626 -0.007734937 0.19836652 0.06546339 -0.36335027 -0.39907286 -0.016459476 0.10357231 -0.2754867 -0.57422805 -0.1435871 -0.0049929814 0.5699061 -0.23547068 -0.56800395 0.23731168 0.23689963 0.05237515 0.22206011 0.33484346 0.014636167 -0.09867601 0.4197856 0.33625957 0.28550687 -0.76448727 -0.5202567 0.58151096 0.010515885 0.54351825 -0.09114355 0.580109 -0.78962845 -0.06347432 0.3058827 -0.72423214 0.1916058 -0.13649102 0.16474667 -0.42346358 -0.12332783 -0.14289513 -0.14286394 -0.09577566 -0.08333517 -0.10673654 -0.21503142 0.082035385 0.10738712 -0.046753645 -0.7612282 0.15868999 0.14091107 0.15642075 -0.38856053 -0.25169328 -0.14540462 0.026337553 0.16830027 -0.14161296 -0.06288258
2033 0.010023597 0.007818804 0.48329243 0.113156065 0.013296752 0.15384856 0.0057635605 -0.37729028 -0.42990842 -0.022670997 0.07051983 -0.30993068 -0.56828356 -0.15689589 0.008497885 0.6079847 -0.23736896 -0.5916123 0.25580645 0.22673863 0.041408215 0.17488411 0.3057407 0.030146724 -0.09917473 0.47483683 0.3390909 0.28209722 -0.6820817 -0.48010322 0.60289955 0.022945378 0.56213135 -0.13855354 0.57695156 -0.8249989 -0.037060976 0.31758836 -0.7383836 0.2254334 -0.11067448 0.14950262 -0.43167678 -0.1488452 -0.13120046 -0.15437213 -0.08675688 -0.0758126 -0.122189574 -0.22068028 0.043255363 0.07300863 0.0032598928 -0.732825 0.15429378 0.1646288 0.13533828 -0.43944228 -0.27252522 -0.112340145 0.053939536 0.1879187 -0.16736136 -0.08388306
2767 0.10645998 -0.0015099408 0.56828904 0.33024654 -0.33175674 -0.23797266 -0.23095053 -0.024722485 -0.26323527 0.062052205 -0.2496232 0.087311834 -0.046366163 -1.2118108 -0.403191 0.10163148 -0.02407239 0.45042008 -0.12659337 0.37221938 0.30193126 -0.4047056 0.41661748 -0.057271916 -0.20987813 -0.5563222 -0.11453316 0.3290613 0.009557582 -0.58730334 0.10877043 -0.48803207 -0.24602777 -0.6014531 -0.1987409 -0.20167801 -0.19568457 -0.14747445 -0.037767526 -0.063379385 -0.095942624 0.14980344 -0.29648218 -0.5118458 0.26929945 -0.45884132 -0.011408721 -0.050192457 0.082795285 -0.31168333 -0.0015145419 0.24958906 0.022976914 -0.10309902 0.10304933 -0.3840568 0.37648112 -0.5117531 0.7965394 0.3493144 -0.4348437 -0.20992953 0.13857606 -0.10027625
5332 -0.24299681 -0.26895794 -0.0003203928 0.3841803 -0.123971745 0.07647001 0.025023857 0.12856899 -0.37194636 0.05033248 -0.18333505 0.011755186 -0.39786288 -0.52429587 0.12901051 0.23908226 -0.27799523 0.7367055 0.07188008 0.74387956 0.14580119 -0.19142884 -0.18293978 -0.19693127 0.21767253 0.25499928 -0.22435762 0.10760585 -0.30993223 -0.59441864 -0.032678857 -0.18137747 -0.11641999 -0.021372028 -0.047844242 0.01375746 -0.26067913 -0.49384624 -0.044717528 0.23063788 -0.4030322 -0.15491883 -0.16974641 0.01406074 0.42163903 -0.027974648 0.1283752 0.16837731 0.041332673 -0.12672327 0.597847 0.40123308 -0.2692768 0.22388826 0.25263092 -0.14643681 0.486506 -0.16994919 0.4231342 0.32431397 0.08427335 -0.105564184 -0.055220824 0.0012484853
6774 -0.111521214 -0.27365232 0.6783017 -0.1271831 0.13156416 -0.110431366 -0.0848539 -0.42718548 0.17220485 0.34780157 -0.2547674 -0.04681884 0.11029153 -0.047547277 -0.06255552 0.43044573 0.01206392 0.10874473 0.39287952 -0.32998854 -0.33043283 0.48267072 -0.40203187 -0.0063985493 0.3612523 -0.11854385 -0.18263347 0.47987702 -0.23615855 -0.21503827 0.07789968 -0.0044601 -0.2614843 0.021061014 -0.15294024 -0.760518 -0.32141337 0.18199617 -1.229521 0.3135516 -0.056076635 -0.048554104 -0.39907873 -0.38279969 -0.19839342 0.09203924 -0.20551804 0.02523263 -0.31882626 -0.15670626 0.14028865 0.3192577 -0.13564898 -0.18901071 0.22656128 -0.26050228 0.30564445 -0.22979468 -0.34694165 -0.33058715 -0.39709634 -0.14475672 0.16382949 0.4347078
23236 -0.2891945 -0.28393954 0.028956546 0.38005778 -0.12983935 0.09236029 0.082750626 0.09525858 -0.35841143 0.09119255 -0.19675581 -0.024904013 -0.41586247 -0.50611794 0.16855772 0.18168612 -0.28261012 0.7608785 0.101011924 0.7366193 0.1633723 -0.17581622 -0.19499175 -0.12736008 0.13915466 0.24791296 -0.31729305 0.14865406 -0.23744658 -0.55229145 -0.013043304 -0.19545028 -0.110616475 -0.031692624 -0.09780393 0.006450495 -0.2755183 -0.45970994 -0.056384508 0.25873348 -0.36814827 -0.17096788 -0.2068606 -0.01750675 0.40430373 -0.039422452 0.14318502 0.19625218 0.020624653 -0.18697004 0.58022183 0.40996408 -0.23097251 0.24487723 0.2857759 -0.10586599 0.4278868 -0.22263448 0.44976538 0.33763424 0.12735745 -0.13007478 -0.032431573 0.03859666
5331 -0.30066565 -0.25919807 0.023988603 0.36133325 -0.11516288 0.10894065 0.006802203 0.11030124 -0.37803867 0.08282686 -0.21609001 0.007823986 -0.38792944 -0.4621297 0.09256786 0.22078453 -0.22728115 0.75422674 0.07394114 0.73733425 0.14173847 -0.22510245 -0.16653392 -0.22476457 0.18794686 0.24913792 -0.21475525 0.11070018 -0.27545074 -0.5293645 -0.05882621 -0.17088789 -0.11976751 -0.034634165 -0.076283954 -0.020742532 -0.29275137 -0.472721 -0.00044013205 0.20565684 -0.34549904 -0.21104519 -0.19710903 -0.019844875 0.37789923 -0.053033955 0.12407616 0.17074284 0.052358106 -0.15802026 0.55140984 0.44595167 -0.2795732 0.25432298 0.27560842 -0.14748259 0.47373202 -0.20349039 0.484875 0.33023328 0.05773429 -0.12431705 -0.11057505 0.052271765
5330 -0.33558443 -0.25670186 0.04393631 0.3740697 -0.1313666 0.09759399 0.005609508 0.08096264 -0.3167607 0.09358959 -0.1566293 0.022408584 -0.4371431 -0.53321826 0.07583338 0.24019423 -0.2575975 0.7653611 0.11329035 0.75387543 0.1177472 -0.1958818 -0.19025365 -0.20301898 0.13929479 0.22855835 -0.24647684 0.15222833 -0.25742924 -0.5441977 -0.046742648 -0.17800762 -0.09943474 -0.006473542 -0.10119088 -0.0075067948 -0.31239706 -0.48875466 -0.057325426 0.22436385 -0.41313002 -0.19551055 -0.1846516 -0.0024946632 0.39002618 -0.0653701 0.07151159 0.13012041 0.06145605 -0.13657162 0.62601703 0.38933623 -0.23844863 0.24072802 0.23304132 -0.17024846 0.43279892 -0.21090531 0.40652838 0.31748787 0.07372597 -0.11499122 -0.008587828 0.024178654
998 -0.56010765 0.076070055 -0.20816791 0.015522514 -0.23710144 0.31574795 -0.2698878 0.29044092 -0.18031332 0.4357531 -0.02851925 -0.3767961 0.32401437 -0.17087843 -0.42457908 0.30399644 -0.5465155 0.14962193 0.571617 -0.033017717 0.63742745 0.44659543 -0.074136026 -0.18033032 0.6725287 0.18514328 0.50790435 -0.617146 -0.115795135 -0.27208665 -0.10711458 0.26249862 -0.2880603 -0.40342996 0.16682722 0.09327935 -0.21119773 -0.23778872 -0.29511112 -0.026971415 -0.1785953 0.33630142 0.064919084 -0.09346981 0.17057377 -0.107731245 0.7852951 0.10246331 0.5176753 -0.41671953 -0.7007012 0.35889816 -0.7289098 -0.3006773 0.24507 0.08689865 -0.029137107 -0.30554402 0.024804246 0.5090553 -0.24053268 0.056859285 0.51543725 0.18053435
2775 -0.20374131 -0.31290725 -0.030691747 0.09958535 -0.51644707 0.0014695944 -0.26020333 0.098591685 -0.1661064 -0.0075386153 -0.022491531 -0.1745176 -0.48428982 -0.66990715 -0.10803127 0.20587185 -0.056814946 0.5588947 0.57213515 0.3519005 0.47666973 -0.3113695 0.45797205 -0.008830169 0.3265796 0.1982785 -0.05939398 0.23136175 -0.11196517 -0.26355758 -0.35333183 0.08150652 0.14100601 -0.73431087 -0.20080239 0.36665234 -0.41370696 -0.14621998 -0.033679396 -0.18187983 -0.25860882 -0.32988918 0.026360914 -0.099970944 0.33166626 0.25822163 0.3808398 0.0054729236 -0.32501408 -0.37905067 0.13641013 -0.1489141 -0.48499462 -0.21186726 -0.10931659 -0.153042 0.24298993 -0.4478761 0.23544177 0.20636435 0.10796917 -0.17149818 -0.44928595 0.2685253
3091 0.08063489 0.24508572 0.33457565 -0.1668496 0.18587062 0.90690535 0.22360528 -0.18199497 -0.13956659 0.09434858 0.21656963 -0.26496062 -0.32404432 -0.04369334 -0.14023097 0.6700295 -0.19793665 -0.44917083 0.087466605 0.08899708 0.09430102 -0.28817385 0.015370956 0.062010862 -0.22238043 0.18482144 -0.14582708 0.12726246 -0.78846395 -0.50737196 0.22341031 0.113031335 0.41211575 -0.30965203 0.5541785 -0.7964825 -0.34828264 -0.018144503 -0.41013592 0.20114131 -0.016663406 0.18508893 -0.74020725 0.06900448 0.32177415 -0.6702225 -0.17794299 -0.21561366 -0.09795043 -0.34129333 0.26699668 0.1118615 -0.4711799 -0.6639929 0.11533099 0.0015508855 -0.16663413 -0.3046954 -0.34877402 -0.28500473 -0.19367412 0.24981442 0.0981198 0.08917511
3643 -0.4426784 -0.09974631 0.18327177 -0.40511322 -0.08106428 0.45183027 -0.15424936 0.27818865 -0.24069102 0.28455117 0.19625302 -0.24584933 -0.22085132 -0.08623532 0.12257875 0.7298952 -0.4832627 0.07754086 -0.25461793 0.3971942 -0.17478839 -0.041697644 0.038646735 -0.48308894 0.3725796 0.22490263 -0.14917459 0.1887239 -0.05608874 -0.579379 0.39809805 -0.4707579 -0.2719685 -0.16361314 0.22847834 -0.06425577 -0.22977766 0.0028823346 -0.8182744 0.057563424 0.025233535 0.30367917 0.2990021 0.14958107 0.51096976 0.16255859 0.31391287 0.037513338 0.08700709 -0.06928163 0.3278506 0.4641508 -0.0029629334 0.056619264 0.46170646 -0.02900599 0.09290698 -0.18187715 0.5918022 0.02803149 -0.152607 0.3806773 -0.2554803 0.4682776
5582 0.22026111 -0.041513387 0.2278849 -0.1482666 -0.4037893 -0.29853818 0.03839783 0.40738174 0.18489961 -0.12598678 0.5898767 0.10451741 -0.3003291 -0.22388116 -0.28305054 -0.012579209 -0.12767811 -0.008231594 -0.10604353 -0.009441484 0.48475435 -0.4509698 0.17177838 -0.49911758 -0.02781153 0.09653523 0.08923161 0.096679755 0.11837786 -0.16288686 0.10996621 0.001985243 -0.090708695 -0.40207672 -0.18677375 -0.7981163 -0.38491464 -0.20678546 -0.2611806 -0.112692915 0.364483 -0.111627884 -0.49222538 -0.12264759 0.23837475 -0.3675965 0.20006123 -0.023362288 0.15944193 -0.22225283 -0.5488021 0.14558303 -0.18591972 -0.14182828 -0.08198011 -0.5204725 -0.19685766 -0.1946101 0.1740656 0.3220317 0.25206408 -0.0062630405 -0.07983356 0.80024385
2790 -0.26768553 -0.5225563 0.27630016 0.20465562 -0.3288064 0.06693655 -0.051489297 0.014575202 -0.20502552 0.27545878 -0.023370646 -0.0597334 -0.20770793 0.094361685 -0.008655847 0.13128892 -0.0069184257 0.43602368 0.043951478 0.30953443 0.42896742 -0.30159348 0.20523944 0.021060454 0.15692689 -0.17789614 0.011690463 0.01013034 -0.14053129 -0.11468289 0.017009268 0.07686506 -0.10372836 -0.4266764 -0.16389297 0.29661965 -0.5901386 0.09974791 -0.14505923 -0.10788632 -0.123121396 0.023200026 -0.48430964 -0.07549492 0.04580504 -0.20905642 0.26016012 -0.39264897 -0.17794521 -0.29842633 0.1336421 0.16432431 -0.4454962 -0.15274593 0.014593994 -0.11394308 0.2463434 -0.57791835 -0.105810456 -0.069445126 0.099587455 -0.049980946 -0.23972468 0.10645509
2785 -0.28963375 -0.5266084 0.30922875 0.26565316 -0.2830584 0.09996652 -0.1181314 0.023179825 -0.2627125 0.2502107 0.00921746 -0.048668366 -0.2249185 0.06572734 -0.07210825 0.17006639 -0.010289812 0.44946143 0.044484966 0.31689677 0.39362884 -0.27825788 0.24655756 0.0023171774 0.15136659 -0.1176184 -0.017314723 -0.01328558 -0.1650879 -0.12061174 0.06731366 0.090809174 -0.12841648 -0.46937367 -0.12849161 0.30738777 -0.6487908 0.07956367 -0.08735773 -0.0664145 -0.048548546 0.011599307 -0.46713883 -0.07728115 0.032969344 -0.18838446 0.20622207 -0.42059243 -0.14676966 -0.2549896 0.13886589 0.1819208 -0.48212504 -0.17149602 0.03716125 -0.081582166 0.22687533 -0.51638395 -0.13437995 -0.012271962 0.08882208 -0.009610739 -0.20706499 0.047579765
2793 -0.2771787 -0.50223416 0.37818295 0.20718634 -0.3312602 0.1229719 -0.08423187 0.053366087 -0.2659633 0.2926607 0.0013553534 -0.04018717 -0.21817486 0.104716055 -0.06764857 0.15294218 -0.005042689 0.43980148 0.037433315 0.2662344 0.4179508 -0.29333946 0.19106919 -0.021286743 0.15160412 -0.22960398 0.027771147 0.025472367 -0.22758318 -0.14888786 0.047398306 0.1416105 -0.12536673 -0.4274192 -0.1466416 0.2811566 -0.6213293 0.08557776 -0.102925494 -0.08340728 -0.039601274 0.033971842 -0.48381373 -0.07548858 0.037955713 -0.18947709 0.249524 -0.40554503 -0.1709895 -0.30090427 0.17733635 0.121062055 -0.4753503 -0.13788883 0.09012756 -0.08550266 0.20735957 -0.55312485 -0.045400675 0.029449616 0.07202405 -0.06623063 -0.21268961 0.078991
2783 -0.23313619 -0.51440877 0.35224035 0.21415114 -0.33625495 0.10210393 -0.114245094 0.06676862 -0.2999029 0.28714436 -0.00406594 -0.047081877 -0.20723948 0.1346595 -0.042466808 0.14011401 0.003497594 0.4365576 0.054346412 0.29116735 0.42880768 -0.26510048 0.2150373 -0.05325282 0.09857561 -0.19056152 -0.0326286 0.035890423 -0.20698158 -0.10985476 -0.0057302047 0.079634525 -0.09030513 -0.492413 -0.17861538 0.2554825 -0.6339975 0.124000214 -0.095998496 -0.100507095 -0.100074135 -0.04913089 -0.44878244 -0.06016618 0.03798721 -0.211722 0.20002893 -0.38142458 -0.16643661 -0.29018345 0.09640468 0.17837797 -0.48966238 -0.18062815 0.08855217 -0.0819721 0.18649688 -0.48648357 -0.09980287 0.042041335 0.115745075 -0.08259563 -0.17394125 0.08942944
2786 -0.26278228 -0.502105 0.29043195 0.18073799 -0.3156419 0.10428681 -0.06586691 0.08390575 -0.22654873 0.3177752 0.03774226 -0.053322658 -0.19564438 0.12362149 -0.06274378 0.15938197 0.01661105 0.46613473 0.07367876 0.2769045 0.414784 -0.30316553 0.20180032 0.03286686 0.14196146 -0.12653184 -0.042076495 0.01852689 -0.17526896 -0.13815321 0.044737365 0.10203619 -0.11967855 -0.46672627 -0.12836094 0.2748091 -0.6090632 0.104511105 -0.098806 -0.15427412 -0.1202734 0.04215572 -0.49207342 -0.049567726 0.09245051 -0.197105 0.22761802 -0.41246882 -0.12804885 -0.30614582 0.11246288 0.14629677 -0.50215375 -0.13876615 0.0036248425 -0.0686232 0.22094584 -0.5679517 -0.11295054 0.04451383 0.07901361 -0.04836283 -0.17186925 0.12359904
2791 -0.30141732 -0.51240087 0.3313221 0.22103932 -0.31784678 0.11719293 -0.111911654 0.034787424 -0.2627534 0.29646116 -0.05353804 -0.07058061 -0.16283178 0.10538145 -0.087051764 0.13818087 -0.015012312 0.4498947 0.054190964 0.28891572 0.38501576 -0.2990906 0.20254436 -0.077915065 0.14592884 -0.15685901 -0.026369877 0.0397642 -0.19020802 -0.1700347 0.015680538 0.08643603 -0.096685044 -0.46764722 -0.13943517 0.2773066 -0.5986074 0.05917668 -0.08900908 -0.10302477 -0.093139715 0.005989936 -0.41269127 -0.09060601 0.07150773 -0.21239592 0.30548185 -0.404418 -0.1486122 -0.28149104 0.14701378 0.1673555 -0.42877153 -0.19036706 0.08482595 -0.09529684 0.27882323 -0.5177106 -0.13459645 -0.035051204 0.06578166 -0.06423433 -0.19587219 0.05281788
94235 -0.24789634 -0.5537132 0.3484899 0.22641964 -0.34390256 0.11365224 -0.1106625 0.029784244 -0.21568675 0.2816103 -0.026267191 -0.041827228 -0.22051625 0.13967912 -0.053078644 0.16208239 0.008864242 0.426567 0.024357632 0.28911528 0.37803695 -0.29379895 0.22888651 -0.040919766 0.13908048 -0.14298835 -0.02847406 0.05732461 -0.1399317 -0.13451684 -0.006472968 0.07258025 -0.07909625 -0.48255813 -0.14653558 0.281984 -0.51483864 0.11008863 -0.11115499 -0.08183639 -0.08054293 0.030918729 -0.46388382 -0.0877299 0.056908358 -0.1889635 0.2779916 -0.40198067 -0.14546962 -0.2906678 0.17781842 0.12689264 -0.5048941 -0.18678565 0.08350953 -0.10615551 0.24462427 -0.5209612 -0.11610138 0.015442991 0.09064183 -0.116846584 -0.2507004 0.09886829
10681 -0.28606638 -0.51631385 0.31453535 0.15532583 -0.25018993 0.10324883 -0.06545449 0.06501351 -0.2516502 0.29894882 -0.015287852 -0.044722043 -0.19957261 0.16288458 -0.059755642 0.16518599 0.004594371 0.44898322 0.07188318 0.32351527 0.43667528 -0.30385888 0.23728752 -0.008450272 0.11231512 -0.17037052 -0.06240461 0.012999478 -0.16598152 -0.13819346 0.053736128 0.061710037 -0.12829949 -0.4789348 -0.145143 0.29062814 -0.6005571 0.105006 -0.13472489 -0.124201134 -0.06936117 0.0047845216 -0.48521137 -0.10578484 0.035172388 -0.21283133 0.26603475 -0.37772158 -0.17021462 -0.31014323 0.14891024 0.091959395 -0.42449394 -0.14431585 0.07283462 -0.07879629 0.23068137 -0.49776328 -0.054974694 -0.045873735 0.12729792 -0.06092558 -0.22075692 0.0796368
54331 -0.24418907 -0.52096504 0.35989243 0.22532754 -0.30542028 0.1264218 -0.16070548 0.03660842 -0.24767268 0.2961178 -0.041761663 -0.061575443 -0.17237104 0.09437189 -0.11554938 0.18870431 -0.026512047 0.42158914 0.049648125 0.3135563 0.38557884 -0.2981885 0.22403874 -0.03156801 0.19421193 -0.12635964 0.0069771246 0.08112026 -0.19471179 -0.12244201 0.05276193 0.08674279 -0.09409084 -0.4575704 -0.15341924 0.29218534 -0.60553604 0.096749455 -0.06965382 -0.04141276 -0.07377089 -0.015022899 -0.43085682 -0.07287486 0.031749725 -0.22588785 0.2067294 -0.38836968 -0.14363232 -0.30430263 0.11787887 0.14849564 -0.4546166 -0.15814623 0.051046576 -0.08450222 0.22096999 -0.5703653 -0.13704449 0.008095979 0.06776933 -0.080273375 -0.22774082 0.09065743
3725 0.06245882 -0.4562005 -0.2231888 -0.07472137 0.4823856 -0.02006121 -0.09411781 -0.32205316 0.5833555 -0.03299282 0.19284894 -0.47468692 -0.44022647 0.015473198 0.37635407 0.1535867 -0.2125464 0.3083039 -0.027519071 0.040406138 0.22082336 0.038979705 0.40213284 0.29442614 -0.11065582 -0.27408582 0.54471326 0.22798659 0.15656391 0.08416112 0.08227012 -0.26311105 -0.22222005 0.0036485165 0.5233801 -0.33726132 -0.81399256 -0.12392767 0.02368372 0.5103795 -0.19818705 -0.22043379 -0.42845553 -0.56292295 0.094384946 0.07895798 -0.040494945 0.08160095 0.42816237 -0.028234715 -0.43533292 0.71303654 -0.20985936 -0.22238739 0.19911405 -0.6061648 0.31508583 0.3160228 -0.38417837 -0.13534975 -0.60325503 -0.6673277 -0.06565176 -0.19324636
59345 -0.2807829 -0.54086983 0.36772138 0.21078175 -0.31299555 0.12937237 -0.10000519 0.012211116 -0.25420126 0.2884689 0.032359928 -0.06644062 -0.2302499 0.15555368 -0.09165522 0.17205237 -0.0147458315 0.4019181 0.0965112 0.27911603 0.38921824 -0.27687147 0.22541511 -0.06222382 0.12895694 -0.1791018 -0.0069709904 -0.00014370852 -0.1792501 -0.17397788 0.05375365 0.12185603 -0.09361634 -0.44895884 -0.16535285 0.2886675 -0.5443356 0.108810835 -0.116026245 -0.11002699 -0.08055552 0.010138975 -0.47843686 -0.052500088 0.085122995 -0.19712211 0.23048225 -0.41787803 -0.11933138 -0.31214133 0.15624698 0.14307415 -0.44622225 -0.13409622 0.088972256 -0.13512231 0.22131696 -0.5603607 -0.10165153 -0.017687146 0.109195895 -0.05467113 -0.17690974 0.027278215
1385 -0.08068312 0.22258346 0.34340987 0.107012205 -0.11216901 -0.16804682 0.14043526 -0.36586237 -0.017482819 -0.3671287 0.04890423 -0.20199679 0.1367604 -0.10816043 0.10380502 0.17999373 -0.28075373 0.37016916 0.27015486 -0.083185636 0.3079579 0.5142921 0.48058224 0.093213506 -0.14351687 0.47826797 0.5004517 -0.01629603 0.08771295 -0.89673275 0.4110374 -0.12252427 -0.010579924 -0.08823391 0.36167055 -0.38940173 -0.57668173 -0.16909988 -0.21559751 0.13835849 0.020591848 0.15942465 -0.13150589 -0.16939287 0.08065357 0.049134243 -0.1198265 -0.05377375 0.14790465 -0.21569362 -0.10190039 0.57943434 -0.052839324 0.05318575 0.12871866 -0.9720476 0.08128637 -0.05877481 -0.36305633 -0.035244003 0.4929842 0.1782318 0.01734791 0.44085366
2787 -0.25432423 -0.5103147 0.33960304 0.17206421 -0.26058188 0.11554866 -0.05558211 0.09135427 -0.2400257 0.31890342 0.007492582 -0.032001436 -0.24924926 0.12229586 -0.09141765 0.1810086 -0.01393584 0.46003866 0.05006856 0.2688014 0.4353932 -0.31027818 0.22867928 -0.038192928 0.10582068 -0.1666951 0.001483911 0.045785382 -0.17824669 -0.17087416 0.039761655 0.10502238 -0.08172899 -0.42378 -0.14442319 0.27701262 -0.5752325 0.1265801 -0.102519736 -0.071402304 -0.11495258 0.09125395 -0.46594325 -0.11963905 0.059080057 -0.19753176 0.21794815 -0.40121752 -0.14256823 -0.29948908 0.14346567 0.13548012 -0.44809857 -0.14024916 0.026541743 -0.102448925 0.23570693 -0.49643257 -0.103852406 -0.04409718 0.07681758 -0.050208397 -0.22553504 0.108421355
2353 0.03621636 -0.3027785 0.057982966 -0.34670174 0.30083153 -0.09331512 -0.021722924 -0.13040426 0.41375002 -0.23422538 0.3843511 -0.44663563 -0.5851986 -0.18908025 0.4434241 0.11991004 0.083664276 0.32003224 0.020003375 0.10429259 0.21061015 0.28517532 0.05779213 0.09765151 0.13537711 -0.35755786 0.5834748 0.2414595 0.16951318 -0.17068297 -0.1373711 -0.2509226 -0.4822766 -0.13807192 0.46802947 -0.5746016 -0.73081785 -0.1446241 -0.13772455 0.21756801 -0.17241688 -0.58852416 -0.2882035 -0.5085128 0.20622042 -0.14878044 -0.39355123 0.17393683 0.14069591 -0.08373391 -0.51640266 0.4061342 -0.124250494 -0.32814276 0.2708776 -0.27696657 -0.0060959095 0.15637171 -0.32476974 -0.054144695 -0.41110328 -0.3862648 0.013569746 0.27939013
2261 -0.2176553 0.0650908 -0.011168789 -0.12998423 0.056341324 0.6940777 -0.02255531 0.37389195 -0.2686358 0.21926063 0.17940155 -0.43932125 -0.06820131 0.035447646 0.42425144 0.9026829 -0.5927506 0.052213095 0.22957689 0.23078616 0.038534448 -0.3068212 0.013196016 -0.2604383 0.010336706 0.061420586 -0.40215254 -0.10224373 -0.02687966 -0.20719996 0.24383625 -0.5875376 -0.17274113 -0.25846717 0.020874416 -0.16219635 -0.38290447 -0.14655852 -0.24002922 0.089382686 -0.12245302 0.2360565 -0.0806958 -0.07437771 0.304782 0.06100428 0.42414945 0.1082115 0.08242769 -0.090678215 0.32771453 0.3516809 -0.015679767 0.059494276 0.95962834 -0.025811672 0.20506254 -0.20173867 0.28016916 0.050499547 -0.15905719 0.3084481 -0.12707645 0.39775032
6237 0.05215405 -0.17190368 0.12892218 -0.037503906 -0.055344217 0.27265066 -0.3095313 0.30775815 -0.12928696 0.3634704 -0.12884952 0.20673086 -0.41109803 0.18492967 -0.26132855 0.3480248 -0.22001384 0.10011356 0.46998462 0.1930339 0.1292576 -0.52869606 -0.4790533 0.36634976 0.35074046 -0.006086472 -0.06407354 -0.24136887 0.06990897 0.014714815 -0.037156027 -0.049167965 -0.19960544 -0.44226417 0.24370433 -0.37169278 -0.28498453 -0.23876348 0.08025512 0.080394335 -0.15558727 -0.22089852 -0.45784548 0.19302186 0.024193611 -0.6083379 0.23439838 -0.6111732 0.36520988 -0.18177487 -0.1491961 0.0712612 -0.3024209 0.22952612 0.20729437 -0.26575857 -0.0803063 -0.90349555 0.22467084 -0.064182855 -0.0044807745 0.07075465 0.018831065 0.63950855
2264 -0.1877823 0.06978847 0.031989023 -0.14070758 0.06383877 0.6740345 -0.018711686 0.33226138 -0.21945456 0.18465345 0.12548786 -0.369071 -0.013722083 0.026194476 0.38993672 0.9087788 -0.62806094 0.02882229 0.24623594 0.21415107 0.012195492 -0.29570153 0.0045414106 -0.2668821 0.02765511 0.023730164 -0.3958593 -0.039372172 -0.011555776 -0.21046191 0.2803487 -0.5958735 -0.1536711 -0.25412086 -0.047391567 -0.12242176 -0.32903603 -0.17085662 -0.23205392 0.05831724 -0.17246367 0.26606873 -0.089081794 -0.0666078 0.33552572 0.045027576 0.5131399 0.13105232 0.053809054 -0.07367413 0.32057422 0.38044998 -0.015386685 0.07892971 0.96844864 -0.041993614 0.22318877 -0.24862301 0.23113552 0.101343416 -0.113798216 0.35715252 -0.1742943 0.40852362
2263 -0.14710265 0.09053661 0.029944528 -0.1496759 0.024020957 0.70178425 -0.059829768 0.3221396 -0.25650558 0.24571623 0.10551014 -0.41425443 -0.05089269 0.06349806 0.3667514 0.9181932 -0.6553576 0.06795433 0.2347434 0.25843352 0.019951355 -0.30345926 -0.024806624 -0.29431733 0.015210447 0.04461868 -0.41228878 -0.07081572 0.047315627 -0.24378 0.2791947 -0.5866551 -0.13558528 -0.27752018 0.005812528 -0.19739641 -0.3692126 -0.15129913 -0.2276457 0.117759064 -0.12524205 0.2440623 -0.019184656 -0.093503274 0.29210064 0.04076395 0.4246635 0.09870599 0.037307814 -0.106748536 0.29579616 0.33797613 0.037701506 0.06774426 0.9154113 -0.025684675 0.20309676 -0.2588917 0.24503377 0.023958009 -0.124934584 0.31496653 -0.13016018 0.41119245
8829 -0.683062 -0.39760315 0.80169946 0.49770856 0.47850904 -0.06577947 -0.70860505 0.8350131 0.24775629 0.4555634 -0.78202176 0.016378693 0.68034816 -1.4817795 0.81548613 1.5088046 -0.47861877 0.54784566 1.3937182 -0.703029 0.723508 -0.57475877 0.27082875 -0.056568075 -1.5889089 0.12743647 0.17621152 -0.7274057 -0.8637842 -1.4768394 1.2213327 -2.0214942 -0.74632674 -1.7203835 0.5115385 -0.38786027 -0.041376043 -0.77467495 -1.7626932 0.59426945 -1.2943385 -0.056478918 -0.64250535 0.18534715 -0.1015523 0.6978109 0.69215006 -1.4211671 -0.84403276 -0.8004802 -1.1882602 1.5563362 -1.0641655 -1.3358792 1.1277179 -0.8394442 -0.26479587 -1.6034865 0.6515921 1.2841818 0.7179702 0.043661 0.73689514 0.2958968
5501 -0.27274695 0.46369368 0.49152732 0.39446342 0.097877204 -0.28640696 -0.05710755 0.28440836 0.40093824 -0.2754049 0.37054494 0.4645761 -0.3326275 -0.06312351 -0.144442 0.24862316 -0.42824444 0.37442294 -0.11387127 0.1952722 0.2763988 -0.1364776 -0.15261266 -0.16298671 0.08076516 -0.14900264 0.5616753 -0.39487156 -0.050269656 -0.19812658 0.2937049 -0.019502865 -0.021930601 -0.27081642 -0.08724843 -0.39770898 -0.0994193 -0.22136115 -0.21260336 -0.055155937 -0.015995413 0.50638837 -0.3104766 -0.4847028 -0.008951624 0.33740678 -0.12749384 -0.058938853 0.4443835 -0.51193345 -0.11956294 0.03512232 0.23171918 -0.49708286 0.05199669 -0.38415056 0.3609182 -0.7207156 -0.7105245 -0.15679817 0.12941457 0.057172894 -0.4807953 0.17941657
5465 0.6538916 -0.33096495 0.15063253 -0.06710621 -0.29074824 -1.0248358 0.008491834 0.11033141 -0.2124439 0.31037882 0.01110561 -0.24722376 -0.47773454 -0.35694563 0.5203346 0.09216495 0.21859276 0.082494766 0.0077945506 0.14150017 0.25636536 0.32192272 -0.057530217 0.15424287 -0.28642663 0.20053399 0.60973996 0.15253451 -0.07370819 -0.25309598 0.76428616 -0.06540197 -0.6041089 -0.57351273 0.40472692 -0.66459316 -0.35934523 -0.12129601 -1.1642739 0.25906822 -0.06503831 -0.20296076 -0.40785724 0.08206296 -0.5834164 0.26361197 0.4725255 -0.15320894 0.28923365 -0.2260493 0.07701026 -0.15822743 0.11789182 -0.6842783 0.71645504 -0.366635 -0.090624884 -0.11422905 -0.34888613 -0.4448291 0.7682296 0.350719 0.1958535 -0.0048098504
5500 -0.2619398 0.46170396 0.47397968 0.31478703 0.07268904 -0.2588422 0.00090617914 0.29669696 0.46848482 -0.2276738 0.35235798 0.4549702 -0.27226117 -0.01349507 -0.14735462 0.29719478 -0.42658377 0.43725476 -0.07736319 0.24862729 0.2870533 -0.16377175 -0.14568354 -0.19050728 0.1103986 -0.09343423 0.5437219 -0.36651427 -0.07203106 -0.19846475 0.26333964 -0.009422111 0.010507796 -0.29726472 -0.08639335 -0.45020208 -0.090620264 -0.25517583 -0.19226266 -0.044417366 -0.0020837958 0.43002206 -0.36604849 -0.46169835 0.015760358 0.39709103 -0.14484416 -0.14345542 0.4343796 -0.48508883 -0.076642476 -0.0035351533 0.26017302 -0.477363 0.042185728 -0.3230248 0.37099597 -0.6804673 -0.7258966 -0.092276886 0.1700601 0.10850576 -0.4493321 0.17920484
5499 -0.29961547 0.4807577 0.4908163 0.40915284 0.0429619 -0.292 -0.009917034 0.28354684 0.41323355 -0.30089122 0.35920128 0.3850385 -0.27811778 -0.043990083 -0.13469395 0.29772052 -0.4568743 0.38426706 -0.13873966 0.26229867 0.3062327 -0.16856682 -0.19918033 -0.18548244 0.08376974 -0.12403325 0.5349946 -0.35401395 -0.073015675 -0.26577514 0.2421799 0.008529048 0.014976764 -0.24484728 -0.051268805 -0.3958119 -0.13176417 -0.24314535 -0.22087595 -0.104644716 -0.025664609 0.51471484 -0.33020836 -0.4300435 0.042924944 0.4349477 -0.091604546 -0.16597839 0.4195051 -0.48969617 -0.16459017 0.034811065 0.2951415 -0.46461418 0.03684026 -0.3378552 0.3181749 -0.64959806 -0.68806046 -0.0919852 0.1761239 0.08548327 -0.48434627 0.112309344
468 -0.29816356 -0.11024935 0.42432424 -0.11877796 -0.49949023 -0.027994735 -0.34907103 0.07896781 -0.18556912 -0.2320074 -0.08029278 -0.2716205 0.010145222 0.022604255 0.030503592 0.18083286 0.043548726 0.5043613 0.37298813 -0.13037023 -0.16956516 0.46457636 0.25607616 0.33412474 -0.20949726 0.18757026 -0.035093 0.2662983 -0.35171413 -0.20924349 0.29227534 -0.26174462 -0.005280536 -0.13167645 0.36792168 -0.7420439 -0.72846943 -0.23107831 -0.29125056 0.5193871 -0.13498035 0.30550367 -0.23211038 -0.35838863 0.27516827 -0.051606495 0.15636541 -0.24764985 0.24763913 -0.31607413 -0.51478505 0.036701325 0.16164808 -0.12253121 0.08075497 -0.64535034 -0.14008449 0.037123326 -0.22599699 0.3216344 0.60404074 0.5146182 -0.22261526 0.17041984
2475 -0.17757164 -0.05025977 0.8011448 -0.51667196 -0.05611832 -0.027487066 -0.08288829 0.4192217 -0.21584153 -0.048606686 -0.102833524 -0.26502812 0.049904376 -0.01831371 -0.14733818 0.63736284 -0.20629334 0.7636987 0.09468495 0.015982188 -0.14677224 0.16264898 -0.35379925 -0.6809349 0.212088 0.079595864 0.3142965 0.22434339 0.029001094 -0.2244272 0.14962943 -0.07262274 -0.5028316 -0.3660407 0.08100832 -0.2942321 -0.6845933 0.61452913 -0.24204482 0.26413208 0.3088726 -0.3168645 -0.15442893 0.3942593 -0.5007721 -0.33789793 -0.416037 -0.099179536 -0.1275461 -0.28487903 0.07912915 0.4297106 -0.3498371 -0.19053008 0.24303873 0.07745291 -0.56522155 -0.07093686 -0.36129776 -0.12330896 -0.30971593 -0.13444671 -0.51492476 0.10750483
3690 -0.13393883 -0.14061981 -0.073353276 0.4267471 0.28397685 0.13819191 0.22336079 -0.034994658 -0.13212703 0.19871984 0.4262323 -0.14608043 -0.08463715 -0.12149808 0.15921937 0.022289231 -0.77947307 0.3775138 -0.0026248833 0.4364558 0.2503156 -0.46731526 0.26662406 -0.3163654 -0.22323856 -0.24760921 0.48678443 -0.1122193 0.11879229 -0.11652496 0.20161563 0.063224584 -0.35331497 -0.44476205 -0.1806821 -0.32374316 -0.56456417 -0.4290484 -0.31500858 -0.12343833 -0.704002 -0.120117955 0.25798485 -0.08036564 0.075075075 0.00146412 0.24104488 0.30188718 -0.2168471 -0.47448432 -0.81686205 1.0356088 -0.61358005 0.22546312 0.19737644 -0.54868644 0.19187164 0.2828719 0.36533642 -0.49610606 -0.14624503 0.3900334 0.0024869058 0.16319627
2177 -0.27919695 0.50178033 -0.029565161 -0.5246924 -0.261076 -0.5208226 -0.12629567 -0.13458766 0.24222203 0.37112525 -0.15968771 -0.5035184 -0.62960935 -0.12952757 -0.025206666 0.525172 -0.25286818 -0.30834597 1.0221131 1.202178 0.434412 -0.65718323 -0.10931054 0.26012996 0.916375 0.0789667 0.13775882 -0.22790632 -0.8162002 -0.24145468 0.7256792 -1.2455107 0.6986467 -0.706037 0.7654785 -0.070218176 -0.111882634 0.124857 -1.2456249 0.78027683 -0.60939413 -0.30157828 -0.1810346 -0.56208634 -0.5393181 1.0135624 -0.3939052 0.5450839 0.23128133 -1.140658 -0.9752878 0.17438114 -0.8495169 -1.7457476 0.6867219 -1.0704337 -0.14627473 -0.61699355 0.7061694 -0.41706508 -0.3156319 -0.59387505 -0.66031754 -0.35003304
22800 0.070373684 -0.22787052 0.09545161 0.03123631 -0.044908382 0.1263028 -0.16368896 0.34087145 -0.21289112 0.29449382 -0.102318905 0.19650275 -0.4355129 0.1281419 -0.15485463 0.3907514 -0.3156669 0.02381558 0.3360462 0.30690998 0.13303368 -0.44859293 -0.38371375 0.4075945 0.3792011 0.06487377 0.008564032 -0.2269347 -0.00702867 0.05596301 0.07101273 -0.14657097 -0.121288754 -0.53072506 0.29388896 -0.21633404 -0.32559648 -0.1856714 0.111620314 0.059902105 0.051900312 -0.22886817 -0.50393325 0.28735024 0.08550287 -0.5362444 0.27630174 -0.5086468 0.20713776 -0.08411155 -0.1063118 0.2767037 -0.4438179 0.1499015 0.14288545 -0.3590891 -0.00637456 -0.80795133 0.05505552 -0.016548675 -0.1387247 0.11319793 0.25445133 0.65847594
5592 -0.03345246 -0.036348782 0.02621459 -0.092526644 -0.3314439 0.1405431 -0.14039363 0.55566037 -0.12088356 0.503807 0.3221434 0.2593804 0.06383335 -0.17629883 -0.04907653 0.15345587 -0.56618136 0.9615606 -0.32370698 -0.09935486 0.5208178 0.010933509 0.080419004 -0.17974919 -0.15911724 0.08821722 0.2494702 0.12435485 -0.14730285 -0.6557579 0.42841983 0.062162712 0.060327396 -0.23239543 -0.017711036 0.10689162 -0.21174662 -0.6397797 -0.26669788 0.32193995 0.2303591 0.29595554 -0.24344316 -1.0747657 0.22189781 0.05640069 -0.094148114 -0.12813805 -0.13532497 -0.43748826 -0.1449363 0.062650695 0.2973599 0.07216102 0.21611334 -0.36357355 -0.19933756 -0.23400375 -0.2942601 -0.14410937 0.17350417 -0.23114274 -0.1003743 0.28378424
55215 -0.14263047 0.3162533 0.020042067 -0.67674327 -0.29903802 -0.4349527 0.033460937 -0.17346369 0.24219066 0.43294948 -0.19334866 -0.5304937 -0.64255464 -0.086947 -0.122450605 0.6377891 -0.09319795 -0.27408206 0.96200204 1.1578345 0.33046758 -0.5186288 -0.09894974 0.1513938 0.99968886 0.01897705 0.077664316 -0.44298097 -0.8001433 -0.51494884 0.502735 -1.3074672 0.5855294 -0.6705276 0.5433171 -0.22913131 -0.39862335 0.24499339 -1.0334791 0.59910476 -0.49502686 -0.52758265 -0.17355685 -0.34632137 -0.6539406 0.97110146 -0.39506742 0.69768375 0.23829041 -1.1688458 -1.0213923 0.07913394 -0.8613164 -1.8006423 0.53527266 -1.0108436 -0.10521984 -0.5865027 0.55876637 -0.4878266 -0.1737364 -0.60985595 -0.784865 -0.31117988
6772 0.0635264 0.014220181 0.44310388 -0.380888 0.27546594 -0.055822123 -0.38293302 -0.26996964 0.25395292 0.24498005 -0.21559592 0.03967218 0.08679299 -0.06558223 -0.008984093 0.33655572 -0.1398962 -0.055586837 0.107849516 -0.2924791 -0.057883337 0.32314128 0.03923486 0.008040352 0.35418183 -0.60903686 -0.261216 0.7396101 -0.35932526 -0.5203157 -0.13749641 -0.19732367 -0.20440558 0.22978295 0.081070654 -0.6831244 -0.6671015 0.38938975 -0.7839288 0.15833092 -0.0193942 -0.022422805 -0.16128725 -0.46306032 0.07109369 0.45477936 -0.041458804 0.4527001 -0.12591608 -0.37936813 -0.13551363 0.46762732 -0.17214496 -0.4104844 0.28294212 0.027065556 0.21119715 -0.31484166 -0.26036775 -0.08827485 -0.7605078 -0.16378611 0.045948025 0.6633116
5593 0.044985365 -0.074572176 0.046234842 -0.18979678 -0.383668 0.011158132 -0.21716693 0.5765008 -0.19300741 0.53819984 0.39448482 0.16638763 0.04213769 -0.17804793 0.047988888 0.1958938 -0.58360595 0.92192733 -0.31265008 -0.20383883 0.5458227 -0.00073974597 0.08283372 -0.10122426 -0.16200218 0.108028606 0.26559287 0.04903189 -0.18417859 -0.62224793 0.38008732 0.066625275 0.13344695 -0.24695726 0.035706878 0.06757984 -0.19651705 -0.5943318 -0.22025345 0.26600292 0.34220296 0.3333973 -0.3035781 -1.0860039 0.2229084 0.056137253 -0.15630817 -0.08218554 -0.1952417 -0.40184045 -0.14415993 0.05413358 0.21886054 0.061899234 0.24811338 -0.42526668 -0.14360961 -0.19011262 -0.2710303 -0.10288595 0.109933555 -0.19869508 -0.10383954 0.2978942
387 -0.009201519 -0.18018818 -0.10909144 0.24190223 0.23364665 0.15651208 -0.13799725 0.18061887 -0.04283095 0.06705431 -0.18090539 -0.20104635 -0.112715155 -0.28708 -0.44708 0.37388948 -0.6190803 0.15425514 0.16828676 0.36841774 0.48711562 -0.006685896 -0.26644695 -0.7669454 0.16416463 -0.09067105 0.5582167 -0.31531915 0.7405614 -0.09589489 -0.3319939 -0.026349185 -0.10075331 -0.24531908 -0.2365445 -0.3192616 -0.18141024 -0.40232313 -0.1068071 0.25738835 0.39372888 -0.0032627296 0.42916554 -0.077068985 0.122321144 -0.53726715 0.71758115 -0.47810227 0.3661968 -0.18387079 -0.29715785 0.20308377 -0.6350641 -0.381601 0.278103 0.03282191 -0.7987804 -0.62622756 0.51070046 -0.36429974 0.14829543 0.15492418 -0.31611916 -0.2613275
775 -0.3749901 -0.1175463 -0.0055571585 0.26639125 -0.08687414 -0.43652135 -0.18386331 0.22979966 0.09499603 0.022077909 0.074029244 0.5496822 -0.2128324 -0.23788433 -0.44301918 0.07024836 0.29105645 0.6012987 -0.18757571 0.071001306 0.20277165 -0.31358764 -0.18712236 -0.35274678 -0.01854405 0.06909085 -0.05530346 -0.22231817 -0.05082202 -0.47984934 0.30107924 0.2358174 -0.11337999 -0.64589006 0.046469353 -0.41118354 -0.10048072 -0.2955577 0.28196508 0.17297101 -0.034218762 0.01759778 -0.8167237 -0.37100184 0.05893092 0.22701031 0.04157607 0.1722755 0.20033672 -0.32377297 0.17634901 -0.12220518 -0.3018472 -0.0896893 0.13814282 -0.1685987 0.38057837 -0.38748488 -0.061349437 0.26902163 -0.062057294 0.091406174 -0.492435 0.47772446
5581 -0.46852338 -0.27178174 0.2029541 0.16383426 0.15226588 0.031379037 -0.58052087 0.21796317 0.110768735 0.18432237 -0.023069728 0.20404854 -0.2515341 0.29726616 -0.35048443 -0.007100876 -0.6844857 0.3779009 -0.013099589 0.54713035 0.17336302 -0.13011253 -0.18311027 -0.0053055715 0.43768796 -0.14760703 0.038614064 0.12591375 0.06278559 -0.37628886 0.23797671 -0.5556057 0.29407376 -0.41106275 -0.4636286 -0.15328819 -0.21782562 -0.6345019 -0.28665033 0.07364648 0.25485712 -0.045552544 -1.0093812 -0.08190315 0.22779961 -0.20415175 0.24043112 -0.17080145 0.025736678 -0.30925056 0.044630602 0.19854984 0.0171094 0.07801108 -0.11929065 -0.21234022 0.37004936 -0.20927963 -0.17300734 0.14866875 0.70777917 -0.048148766 0.29979527 0.44982347
776 -0.40761608 -0.11919094 0.034282368 0.27322766 -0.14710638 -0.39900124 -0.18547437 0.2086426 0.16364358 0.024803372 0.028247634 0.60315233 -0.21096516 -0.21804532 -0.39072055 0.09737831 0.24330312 0.60309523 -0.19242558 0.053989254 0.18713547 -0.3962602 -0.26983383 -0.35902345 -0.048961736 0.04882744 -0.08425573 -0.18190904 0.009289544 -0.5085762 0.31406862 0.19365977 -0.062517196 -0.63518625 -0.01554439 -0.35282362 -0.11466193 -0.3550866 0.26967362 0.12630574 0.061355043 0.07351333 -0.8307737 -0.48385042 0.068644024 0.24647719 0.05975208 0.1117058 0.19588178 -0.31554842 0.20674491 -0.15600155 -0.2722166 -0.114792004 0.12688585 -0.14626305 0.35854483 -0.3649371 -0.06890275 0.299418 -0.037017312 0.0642917 -0.48512417 0.45725548
3791 -0.29325825 -0.18597573 0.124455534 -0.19349808 -0.08127894 0.5908675 0.00015700673 0.1758673 -0.3687999 -0.03602428 0.31966257 -0.049986195 0.053397574 -0.33208495 0.16906133 0.66035676 -0.5542328 -0.18453902 0.0945397 0.28375322 0.30655235 0.031597823 -0.15417223 -0.4839438 -0.10464078 0.20410684 -0.14017591 -0.09062209 -0.045418806 -0.11745804 0.24951924 -0.36966982 -0.21157002 -0.20630033 0.13518617 0.09741177 -0.43194345 -0.067126855 -0.54057664 0.18756537 -0.30063817 0.24023224 -0.02774132 0.060525592 0.5039609 -0.02791562 0.19396928 0.44199508 0.29816958 -0.19411196 0.092539914 0.52981615 -0.09250852 -0.032838553 0.76221913 -0.04257652 0.13870902 -0.2462271 0.32528716 0.17352225 -0.1446893 0.37831768 0.13174105 0.41920462
2064 -0.41092962 -0.33463293 0.12487792 -0.5808375 0.0023429533 0.40051264 0.19428273 -0.007999997 -0.3673194 -0.064089954 0.026553769 -0.0007730999 -0.013674573 -0.31426528 0.049465906 0.8573947 -0.7244394 -0.21553183 0.122029126 0.097286925 -0.09218783 -0.37828115 -0.03487712 -0.38255492 0.15226632 0.15176229 -0.2616335 -0.29493418 0.11649601 -0.054350305 0.35391083 -0.47119245 -0.31125933 -0.0861614 0.43390128 0.13563205 -0.50254613 -0.06397615 -0.7220436 0.35762462 -0.16250296 0.38238397 0.07878186 -0.10254947 0.38317588 -0.070150785 0.19079372 0.43456164 0.57116556 0.013526001 0.036715202 0.39310193 -0.04852139 0.036110856 0.45251903 0.05943278 0.20169471 -0.3546636 0.25537208 -0.1399216 -0.02906908 0.10462159 -0.08736391 0.3275522
2260 -0.13464843 -0.14955235 0.09622069 -0.011935858 -0.1969459 0.654731 -0.033799034 0.1853717 -0.34054622 -0.017551044 0.086411655 -0.29756346 -0.1105415 -0.090471685 0.17518501 1.030792 -0.7177973 -0.1339595 -0.17419021 0.3496159 -0.04794084 -0.18583322 -0.04300717 -0.25309217 -0.035076827 0.085419655 -0.21124496 -0.06264362 -0.028255856 0.029174553 0.35181722 -0.5326561 -0.30666757 -0.22636202 0.19402663 -0.19727407 -0.39667952 -0.12031541 -0.39352283 0.15213738 -0.18489073 0.16730016 -0.18619856 -0.002827515 0.61221737 0.05280018 0.18817651 0.05662804 0.23639318 -0.15287936 0.12891625 0.29368207 -0.18313959 0.043905057 0.82966447 0.042989302 0.24944587 -0.19223557 0.37800825 0.13514698 -0.10475344 0.30625582 -0.08735726 0.30036855
2099 0.14898121 -0.18229498 0.17163254 -0.457578 -0.340561 -0.41270268 -0.09029826 0.5474369 0.09228022 0.57703424 0.08797721 0.6176539 0.026383748 -0.5913483 -0.34489146 0.6135638 -0.27579635 0.32016537 0.47332707 -0.011988217 0.61645466 0.4330715 -0.07210166 0.3868436 -0.100002795 0.15430507 -0.10610387 0.54577875 -0.21544291 -0.38236564 0.6072625 -0.19713216 -0.038005892 0.042037405 -0.041754033 -0.64737487 -0.16790378 0.6040014 -0.6253384 0.5339737 0.08830781 0.24323973 0.43359786 -0.87099147 0.7506763 0.4128767 -0.06300784 0.08021708 -0.26084277 0.11336206 -0.23072681 0.47641918 -0.7999215 0.08481203 0.29431206 0.23427057 0.067533046 -0.31829536 0.06092868 -0.6233892 0.18433578 0.36638886 0.044299603 0.116259344
22808 -0.0137441745 -0.2518623 -0.071353674 0.049685594 -0.041878443 0.12338429 -0.17920175 0.27319163 -0.28217903 0.4087894 -0.11508012 0.26124263 -0.4077932 0.12849385 -0.10733321 0.27436978 -0.36554173 0.07737944 0.3826224 0.30643788 0.25839007 -0.4263619 -0.30114752 0.3575938 0.3512923 0.09749607 -0.036118746 -0.21964614 -0.037420124 0.14726074 0.08188341 -0.13292922 -0.11854072 -0.51131636 0.3139721 -0.24725696 -0.34043413 -0.13839558 0.0038778654 0.04184173 0.083085485 -0.17285775 -0.48966733 0.27242246 0.16803129 -0.5591433 0.17328212 -0.5234703 0.3219507 -0.11967249 -0.10055041 0.28654882 -0.34659427 0.12005997 0.12227998 -0.36243984 -0.024058655 -0.7128757 0.080657646 0.016510041 -0.23280714 0.12472237 0.1857709 0.6778049
1026 -0.3165024 0.084131554 0.35002878 -0.24144188 -0.14321929 -0.011501701 0.42031798 -0.61679614 -0.13657752 0.32254854 -0.014705808 -0.011774795 -0.17836443 -0.24966064 0.12710294 0.5131757 -0.13412587 -0.2567696 0.076962344 -0.37494668 -0.31750533 0.09463442 -0.34569 0.15306374 -0.053681076 -0.6739555 0.49292323 0.33182594 0.10455478 -0.5927332 0.4148254 -0.16951574 0.34112442 -0.23123819 0.3992506 -0.89191526 -0.4434177 -0.21350315 -0.46305668 0.19970207 0.12137879 0.29861104 0.23074685 -0.14514421 0.4074553 0.27538985 -0.03228499 -0.10017846 0.39757758 -0.16150454 -0.058291502 0.2249941 -0.18951377 -0.7295821 -0.1143927 -0.4455872 -0.056643065 -0.3402794 -0.401082 0.290371 0.07058354 -0.16685338 -0.20944533 0.21509555
4804 -0.28611484 -0.33014113 0.17813464 -0.11787714 -0.058456726 0.81454724 -0.1185266 0.19691522 -0.3854321 -0.03682526 0.014442477 -0.1634549 -0.014014759 -0.22701268 0.13172781 0.59330225 -0.8210049 -0.19587769 0.14421342 0.614481 0.2964197 0.034604263 -0.30496037 -0.4769766 -0.034539465 -0.012823666 -0.087969035 -0.20629376 0.061703295 -0.21406344 0.26397538 -0.55382985 -0.29818013 -0.11313726 0.1089069 -0.11926652 -0.28235823 0.025356716 -0.46845126 0.29523697 -0.21684708 0.22973536 -0.0028971578 -0.15159133 0.27029812 -0.050787937 0.12758577 0.3602478 0.21757713 -0.1324988 0.124680735 0.21160069 -0.09046325 -0.11001781 0.93120986 0.13745444 0.12505949 -0.2078371 0.3998922 0.26920828 -0.13568595 0.29229683 0.1846085 0.46083143
3815 -0.2970511 -0.04979687 0.15206711 -0.07227631 -0.25194046 0.58180445 -0.012398723 0.09632162 -0.28304818 0.11597041 0.13943228 -0.1981549 -0.016629603 0.003833666 0.35029888 0.85571516 -0.6295124 -0.113027714 -0.1513202 0.44059092 -0.010271327 -0.24385484 -0.072704025 -0.15629724 0.019984556 0.20740895 -0.32769498 0.00029354665 -0.109123744 -0.37479278 0.44214672 -0.45838085 -0.29453337 -0.26720384 0.20841938 -0.066619955 -0.4330892 -0.14436053 -0.5377708 0.13033971 -0.17265527 0.26559523 0.16181043 -0.08082816 0.59717673 -0.11277865 0.24932224 0.056428406 0.26124957 -0.16108395 0.17273292 0.32843733 -0.19179817 0.006448138 0.6682685 0.05352082 0.17751582 -0.2719045 0.3262937 0.15828966 -0.096210726 0.33124885 -0.030467188 0.35102934
2066 0.04353406 -0.046371356 0.4709038 -0.46105906 -0.05175997 0.5776195 -0.23958986 0.099336214 -0.30379188 0.10734052 0.38888916 -0.043953802 0.1561085 -0.5580469 0.2473707 0.9087051 -0.33976856 -0.22789119 0.2639171 0.42451954 0.10850382 -0.028390069 -0.051013872 -0.47511464 0.04720574 0.3055136 -0.3906206 -0.111575834 0.23830912 -0.10808312 0.27433747 -0.472666 -0.26357746 -0.21716781 0.41155985 -0.032744687 -0.32798138 0.075006895 -0.687335 0.19108544 -0.41131896 0.27931732 0.10984544 0.004402164 0.4015668 -0.116771825 0.188536 0.26664641 0.20337348 -0.39079362 0.29979584 0.20916538 -0.09667646 -0.095758244 0.5955745 0.2412825 0.26856992 -0.3014885 0.15024121 -0.09623084 0.17188072 0.35571623 -0.007996573 0.69960475
90993 -0.18073411 0.010331969 0.3892528 0.10600235 -0.21063755 -0.1937327 -0.13646528 0.10564683 -0.22288401 -0.4845259 0.034315526 -0.1525357 -0.03807669 -0.1309025 0.074824765 0.4928317 -0.08422388 0.0994514 0.22813444 -0.056938477 0.19871095 0.4089155 0.35140198 0.30281177 -0.106921084 0.39840212 0.21103357 0.15410538 -0.058951557 -0.61315966 0.4158879 -0.119208746 -0.13054343 -0.07405416 0.12453871 -0.5138678 -0.5273782 -0.22554946 -0.33376756 0.46581298 0.18348017 0.16453393 -0.17615141 -0.3366033 -0.0008923715 0.19462653 0.08705595 -0.111190744 0.33484778 -0.31494093 -0.19151546 0.24961583 0.18365027 -0.08992287 0.06854123 -0.57422066 0.05959923 -0.20400569 -0.32555735 0.12291696 0.58057874 0.06625123 -0.10839366 0.2361756
